tree
version=v4
num_class=1
num_tree_per_iteration=1
label_index=0
max_feature_idx=3
objective=regression
feature_names=irradiance current voltage cloud_coverage
feature_infos=[200.05795971079377:999.97121483408205] [0.0016644134026855:9.9997795178072284] [100.11529265758593:599.92763812409567] [0.00034494409119270001:0.99991874444656037]
tree_sizes=2713 2771 2771 2765 2789 2780 2790 2773 2776 2790 2794 2788 2779 2781 2771 2781 2780 2782 2777 2777 2789 2755 2784 2775 2791 2774 2774 2775 2787 2793 2779 2786 2791 2765 2778 2779 2778 2783 2772 2779 2776 2770 2788 2770 2786 2781 2776 2780 2769 2783 2782 2766 2788 2778 2782 2785 2782 2780 2788 2783 2795 2775 2792 2776 2785 2782 2782 2783 2783 2781 2778 2779 2775 2775 2780 2781 2786 2782 2779 2785 2792 2786 2780 2778 2797 2771 2779 2776 2784 2773 2789 2788 2767 2782 2768 2793 2777 2782 2791 2764

Tree=0
num_leaves=31
num_cat=0
split_feature=1 3 2 0 3 3 1 1 3 0 2 1 2 0 2 0 0 0 2 0 0 0 1 3 3 2 2 2 3 2
split_gain=5.57297e+14 6.267e+14 3.71067e+14 3.19642e+14 9.24204e+13 6.09515e+13 6.54684e+13 5.9803e+13 5.02491e+13 4.48754e+13 3.65343e+13 3.3132e+13 3.283e+13 3.21965e+13 3.02008e+13 2.74022e+13 2.66264e+13 2.425e+13 2.29273e+13 1.77117e+13 1.46121e+13 1.26378e+13 1.188e+13 1.02398e+13 9.82658e+12 9.47611e+12 9.29616e+12 8.59875e+12 8.33276e+12 8.30695e+12
threshold=4.6296758099769333 0.55047234063575512 327.57691459422557 527.98782505067823 0.28053311831051969 0.5476570978704639 2.3018955351939887 7.4731272174194583 0.77018083947990645 519.25501929565246 323.6775187059647 7.1192595873143372 200.09891318394173 581.37285814659401 334.60702335071784 798.66368702433545 545.33156573495546 372.34390715181803 395.57748930006704 745.57010473954801 826.65243353144763 802.21273743212294 6.7259066811645631 0.25983735299198668 0.28443761472510959 499.07979336386285 467.25237101849456 435.14343423146056 0.89017625880978513 473.39542351534163
decision_type=2 2 2 2 2 2 2 2 2 2 2 2 2 2 2 2 2 2 2 2 2 2 2 2 2 2 2 2 2 2
left_child=5 2 9 17 7 6 -1 20 14 -2 -8 29 -11 -12 -3 26 -16 -4 -17 -13 -5 -14 -19 -24 -15 -21 -9 -22 -10 -6
right_child=1 8 3 4 11 -7 10 15 28 12 13 19 21 24 16 18 -18 22 -20 25 27 -23 23 -25 -26 -27 -28 -29 -30 -31
leaf_value=500597.37955214316 511687.21645766293 508002.15484301938 526039.73883328086 573855.41310567467 542725.4268602439 496969.12094837381 508175.58902132406 590981.25310223107 505261.78419799166 520552.37573269696 514467.34657781356 564619.92163117975 535758.07665802538 546458.31465695705 513212.03740658041 607055.15077851317 536796.88497999287 532947.33234353026 663871.36675550486 581265.25537629216 580215.5988198237 555658.63538249268 569937.03684479068 544043.78628210467 528480.91111953801 608019.07138180104 621638.53331056447 616058.9476098069 495892.8203111352 564209.23433174891
leaf_weight=1017 393 453 293 121 91 1722 485 48 518 271 279 86 191 161 221 26 261 90 56 71 27 137 70 84 144 62 51 44 438 89
leaf_count=1017 393 453 293 121 91 1722 485 48 518 271 279 86 191 161 221 26 261 90 56 71 27 137 70 84 144 62 51 44 438 89
internal_value=517778 530355 547881 565361 585967 503931 509679 603860 509030 524816 518319 569241 533430 526742 517271 624480 525983 535736 645856 582303 584421 544070 547379 555813 537971 593737 606774 602428 500969 553348
internal_weight=0 4192 2301 1309 772 3808 2086 373 1891 992 1069 399 599 584 935 181 482 537 82 219 192 328 244 154 305 133 99 71 956 180
internal_count=8000 4192 2301 1309 772 3808 2086 373 1891 992 1069 399 599 584 935 181 482 537 82 219 192 328 244 154 305 133 99 71 956 180
is_linear=0
shrinkage=1


Tree=1
num_leaves=31
num_cat=0
split_feature=1 3 2 0 3 3 1 0 0 3 1 2 1 2 0 3 2 0 1 2 0 2 3 1 3 2 1 2 1 3
split_gain=5.02961e+14 5.65597e+14 3.35239e+14 2.74339e+14 6.81916e+13 5.52897e+13 5.86775e+13 5.40579e+13 5.22985e+13 4.54936e+13 4.33889e+13 3.29194e+13 3.21192e+13 3.11081e+13 2.82616e+13 2.78422e+13 2.60777e+13 2.52268e+13 1.48544e+13 1.45736e+13 1.33452e+13 1.27387e+13 1.16735e+13 1.16062e+13 8.74361e+12 8.48162e+12 8.26478e+12 7.71297e+12 6.86344e+12 6.6187e+12
threshold=4.6296758099769333 0.55047234063575512 354.68835286457903 652.67048447528077 0.18337383300183815 0.49615330648691397 2.26989344200038 420.96986949876606 734.8003090140129 0.75574048370311797 7.3129405072013709 319.63326407548516 6.542299574716794 201.84617090063904 597.14799177310613 0.29263858212701538 307.05178079671595 545.33156573495546 7.2357677812562216 189.06683392309063 459.61589368550864 477.33001558712294 0.3662289227121619 7.1600077885911499 0.89017625880978513 499.07979336386285 7.3129405072013709 423.34234399503003 2.4588081649567854 0.18797295329902894
decision_type=2 2 2 2 2 2 2 2 2 2 2 2 2 2 2 2 2 2 2 2 2 2 2 2 2 2 2 2 2 2
left_child=5 2 8 7 10 6 -1 29 19 16 27 -8 -6 -10 -13 18 -3 -18 -9 -2 -21 -12 -14 -15 -11 -24 -19 -5 -7 -4
right_child=1 9 3 4 12 28 11 15 13 24 21 14 22 23 -16 -17 17 26 -20 20 -22 -23 25 -25 -26 -27 -28 -29 -30 -31
leaf_value=-16174.338063137635 -8146.5983276367188 -10124.136179684803 21233.153967745802 50877.062562500003 40482.007958196831 -21986.113579628 -8768.9300875243534 36308.805215097404 6785.4545365986069 -11452.035883005814 104498.49559659092 -1845.3154350650848 85380.114029947916 23632.226090830383 21032.453025548602 24820.014458264806 -4759.911336494114 8980.195195508526 65280.600721153853 -2219.5874101756949 14906.792745611867 142333.56472222225 50034.150979477614 47068.553353987074 -20790.58612121861 75804.019159836069 26316.326360110965 83487.722679924249 -15981.262405514319 6001.4836293911721
leaf_weight=920 277 362 106 25 124 1011 438 77 152 586 44 268 96 97 272 171 230 137 104 226 229 45 67 116 438 61 138 66 899 218
leaf_count=920 277 362 106 25 124 1011 438 77 152 586 44 268 96 97 272 171 230 137 104 226 229 45 67 116 438 61 138 66 899 218
internal_value=0 11949 28598.4 46815.5 73821.3 -13153.9 -7110.06 25722.2 8604.46 -8310.39 98805.9 1416.66 60898.3 24064.8 9678.3 39287.5 117.904 7459.72 52955.6 895.384 6400.06 123629 72200.1 36395.7 -15446.5 62315.1 17679.8 74528.8 -19159.7 10984.7
internal_weight=0 4192 2301 1204 528 3808 1898 676 1097 1891 180 978 348 365 540 352 867 505 181 732 455 89 224 213 1024 128 275 91 1910 324
internal_count=8000 4192 2301 1204 528 3808 1898 676 1097 1891 180 978 348 365 540 352 867 505 181 732 455 89 224 213 1024 128 275 91 1910 324
is_linear=0
shrinkage=0.05


Tree=2
num_leaves=31
num_cat=0
split_feature=1 3 2 0 3 1 3 1 0 2 0 2 3 0 2 0 0 0 1 3 0 1 1 2 2 2 3 2 0 0
split_gain=4.53922e+14 5.12256e+14 2.9322e+14 2.20738e+14 8.33781e+13 7.38944e+13 5.01009e+13 5.41565e+13 4.48066e+13 4.42231e+13 4.01492e+13 3.37853e+13 3.25364e+13 2.85766e+13 2.75404e+13 2.50669e+13 2.20606e+13 1.52467e+13 1.37164e+13 1.21245e+13 1.06874e+13 1.04625e+13 1.02887e+13 1.00123e+13 8.63499e+12 8.40009e+12 8.12873e+12 7.94792e+12 7.65947e+12 6.97744e+12
threshold=4.6296758099769333 0.46058057429867205 354.68835286457903 568.65359006688516 0.69892210317979331 6.542299574716794 0.5476570978704639 2.6955353956920969 519.25501929565246 323.6775187059647 578.91020178168753 203.72754036537722 0.18337383300183815 372.34390715181803 364.77420888569418 633.87711878188168 839.33670892870703 802.21273743212294 7.5633486039093452 0.87733012504942887 789.04220738100787 1.3022226980725284 7.2824506135755103 511.71556367260661 477.33001558712294 267.35043806047173 0.31299375724245654 467.25237101849456 591.39101164814861 594.24265010080205
decision_type=2 2 2 2 2 2 2 2 2 2 2 2 2 2 2 2 2 2 2 2 2 2 2 2 2 2 2 2 2 2
left_child=6 2 8 13 9 23 7 21 -2 -3 -11 -10 16 -4 29 -16 27 -13 -15 25 -14 -1 -12 -5 -18 -6 -17 -7 -27 -9
right_child=1 4 3 5 19 12 -8 14 11 10 22 17 20 18 15 26 24 -19 -20 -21 -22 -23 -24 -25 -26 28 -28 -29 -30 -31
leaf_value=-18953.485905643127 -3122.3518213907882 -6200.782406409915 9843.544168718694 38805.19367732558 -15792.052132644907 70535.329111842104 -18808.45479744126 -12762.154379464915 5037.32647443311 1834.4400566813151 17696.658590262276 20447.830363641784 58009.052070312508 23494.630800948187 392.74876178806113 33429.146763392862 107582.22106481482 42896.809505931713 48030.572233952706 -19331.170010833739 81849.274862938604 -9572.8975914929379 36177.158224693252 61682.921011513157 146875.11961206896 -11244.129402378629 12243.360542457982 101004.91224489798 1304.6004543093418 -593.70228561044212
leaf_weight=597 372 429 209 129 303 38 1722 222 232 300 140 172 80 117 236 112 27 135 111 480 114 592 163 76 29 252 76 49 235 251
leaf_count=597 372 429 209 129 303 38 1722 222 232 300 140 172 80 117 236 112 27 135 111 480 114 592 163 76 29 252 76 49 235 251
internal_value=0 11351.5 30641.2 49639 -4485.79 70957.6 -12496.2 -7285.41 10225.3 6070.35 14800.6 19437.4 85356.7 23198.1 1990 11243.5 103452 30319.5 35439.8 -13063.7 72018.3 -14282.9 27638.3 47286.7 127930 -9255.61 24864.7 87696.4 -5188.79 -6304.9
internal_weight=0 4192 1890 979 2302 542 3808 2086 911 1032 603 539 337 437 897 424 143 307 228 1270 194 1189 303 205 56 790 188 87 487 473
internal_count=8000 4192 1890 979 2302 542 3808 2086 911 1032 603 539 337 437 897 424 143 307 228 1270 194 1189 303 205 56 790 188 87 487 473
is_linear=0
shrinkage=0.05


Tree=3
num_leaves=31
num_cat=0
split_feature=1 3 2 0 3 0 3 1 1 3 0 2 3 0 2 2 2 1 0 1 1 2 2 1 2 3 1 1 1 3
split_gain=4.09665e+14 4.63264e+14 2.76365e+14 2.40826e+14 5.80118e+13 4.57807e+13 4.54296e+13 4.8423e+13 3.90256e+13 3.70268e+13 3.38508e+13 2.57334e+13 2.47393e+13 2.41412e+13 2.39824e+13 2.35771e+13 2.24778e+13 2.1518e+13 1.99504e+13 1.31126e+13 1.11974e+13 9.90914e+12 8.75313e+12 7.9198e+12 7.68963e+12 6.65971e+12 6.31859e+12 6.21343e+12 6.19849e+12 6.13632e+12
threshold=4.6296758099769333 0.55047234063575512 327.57691459422557 654.72202787486992 0.26447683398546645 420.96986949876606 0.4877135448154557 2.5357837905170437 7.3129405072013709 0.77018083947990645 519.25501929565246 296.83926823220412 0.25983735299198668 597.14799177310613 200.09891318394173 418.46174787016508 337.22756547954731 7.0325712510859022 545.33156573495546 7.2357677812562216 7.1600077885911499 499.07979336386285 461.90624679869558 1.2205865962860942 551.8523103666605 0.21156845617483733 2.4588081649567854 6.896920281650555 5.5746268862733306 0.79304134324931963
decision_type=2 2 2 2 2 2 2 2 2 2 2 2 2 2 2 2 2 2 2 2 2 2 2 2 2 2 2 2 2 2
left_child=6 2 10 5 8 27 7 23 22 16 -2 -9 19 -13 -12 -10 -3 -6 -18 -7 -16 -19 -5 -1 -17 -22 -8 -4 -24 -28
right_child=1 9 3 4 17 12 26 11 15 -11 14 13 -14 -15 20 24 18 21 -20 -21 25 -23 28 -25 -26 -27 29 -29 -30 -31
leaf_value=-18138.608355566404 -5456.0255596442385 -8405.2541250199665 1635.4212240560166 49266.08140889831 35359.913004807691 32161.0619453125 -19931.201651477815 -8203.3635929549127 76191.401622596153 -14470.541329611297 2421.6209288649893 -1251.0323923580349 22555.830951949858 20484.495461425784 12939.484872475154 110437.35215517241 -3958.2675761274859 51769.322125000006 16536.287832381375 59759.169028465345 42566.368416666664 75632.550000000003 58229.655312499999 -9329.4128826587985 146390.84375 22635.338994654609 -11013.273133688914 14973.820062845571 88295.347500000003 -19452.361966408502
leaf_weight=500 393 457 151 59 130 75 1024 337 52 956 271 256 209 255 158 58 220 100 258 101 75 77 30 521 20 95 568 207 40 347
leaf_count=500 393 457 151 59 130 75 1024 337 52 956 271 256 209 255 158 58 220 100 258 101 75 77 30 521 20 95 568 207 40 347
internal_value=0 10783.9 25852.1 40936.9 65508.8 22218.6 -11871.4 -6308.82 82936.4 -7551.29 5946.89 2522.11 34186.8 9595.46 13428.3 102270 -476.639 50806 7103.65 47998.6 22522.2 62150.5 63452.7 -13643.4 119656 31428.4 -17233.1 9347.85 75410.1 -14213.7
internal_weight=0 4192 2301 1309 566 743 3808 1869 259 1891 992 848 385 511 599 130 935 307 478 176 328 177 129 1021 78 170 1939 358 70 915
internal_count=8000 4192 2301 1309 566 743 3808 1869 259 1891 992 848 385 511 599 130 935 307 478 176 328 177 129 1021 78 170 1939 358 70 915
is_linear=0
shrinkage=0.05


Tree=4
num_leaves=31
num_cat=0
split_feature=1 3 2 0 1 3 3 2 0 0 2 0 0 3 2 3 0 0 2 3 2 2 3 0 1 3 0 2 2 0
split_gain=3.71172e+14 3.88889e+14 2.13496e+14 1.66359e+14 8.26493e+13 9.14575e+13 6.17879e+13 4.46123e+13 4.2678e+13 3.75293e+13 3.62691e+13 3.28125e+13 2.36837e+13 2.34824e+13 1.84379e+13 1.63339e+13 1.50522e+13 1.31834e+13 1.24931e+13 1.22021e+13 1.11972e+13 1.08421e+13 1.03205e+13 1.01221e+13 9.84275e+12 9.78045e+12 9.32356e+12 8.53677e+12 7.93304e+12 7.73572e+12
threshold=5.8826559053320704 0.46058057429867205 354.68835286457903 536.77268960677395 2.9915863802160794 0.39989343871648725 0.69579145741634907 364.77420888569418 633.87711878188168 760.29295662111974 425.30576935543689 795.64727546710401 666.4456977265321 0.23619253933123927 200.09891318394173 0.68349390812416067 372.34390715181803 587.98556859340181 477.33001558712294 0.18797295329902894 325.53423215653748 201.84617090063904 0.44447888745482361 670.1660053845452 1.3022226980725284 0.87733012504942887 679.4948705050175 234.60316083294103 341.82226493461616 413.88491318462428
decision_type=2 2 2 2 2 2 2 2 2 2 2 2 2 2 2 2 2 2 2 2 2 2 2 2 2 2 2 2 2 2
left_child=4 2 9 16 22 7 10 26 -9 21 17 19 -12 18 -11 20 -4 -3 -13 -5 -7 -2 24 -22 -1 -8 -6 -19 -26 -23
right_child=1 6 3 11 5 15 25 8 -10 14 12 13 -14 -15 -16 -17 -18 27 -20 -21 23 29 -24 -25 28 -27 -28 -29 -30 -31
leaf_value=-16735.438154256688 -3850.1158382285512 -8198.3238001747741 12371.255111179104 71563.565718750004 -6692.660772285999 -11456.970790694288 -6867.5582710804811 6812.0157025407725 36814.22772727273 10888.232344456723 10365.324716151845 86116.868437500001 39316.815399894069 69678.587319711543 41933.89166666667 -15465.398586354673 34587.52071864652 -4018.0401105013766 121642.34579081634 48130.786031249998 -5658.560657548227 1215.7908889205369 -17980.072638080575 11363.894499790269 -12919.053584880379 -17200.704922194313 7183.2996810551504 15697.421063984912 -1362.5428836706915 18646.724137612619
leaf_weight=486 205 252 154 100 284 321 609 257 220 76 176 50 118 104 129 721 151 88 49 125 211 108 1384 149 297 367 211 146 297 155
leaf_count=486 205 252 154 100 284 321 609 257 220 76 176 50 118 104 129 721 151 88 49 125 211 108 1384 149 297 367 211 146 297 155
internal_value=0 13321.8 32918 51587.3 -8706.84 -2048.95 -2368.49 9737.43 20649.5 12584.3 8123 71695.3 21985.3 86270.4 30424.3 -10220.4 23370.1 -262.843 103700 58545.4 -4667.29 4769.82 -15121.5 1386.84 -11458.4 -10753.1 -777.857 8283.06 -7140.8 11488.8
internal_weight=0 3162 1406 733 4838 2374 1756 972 477 673 780 428 294 203 205 1402 305 486 99 225 681 468 2464 360 1080 976 495 234 594 263
internal_count=8000 3162 1406 733 4838 2374 1756 972 477 673 780 428 294 203 205 1402 305 486 99 225 681 468 2464 360 1080 976 495 234 594 263
is_linear=0
shrinkage=0.05


Tree=5
num_leaves=31
num_cat=0
split_feature=1 3 2 0 3 3 1 1 0 2 2 2 3 0 0 0 0 0 0 3 1 3 2 2 0 2 0 2 1 0
split_gain=3.37055e+14 3.78484e+14 2.11027e+14 1.59767e+14 5.92999e+13 4.56453e+13 4.53212e+13 4.49233e+13 3.44247e+13 3.2127e+13 2.34613e+13 2.3372e+13 2.28901e+13 2.16e+13 1.71414e+13 1.62503e+13 1.58377e+13 1.29787e+13 1.16345e+13 1.15451e+13 1.10601e+13 1.13103e+13 9.48569e+12 9.37848e+12 9.11008e+12 9.10381e+12 8.6599e+12 8.33765e+12 7.67276e+12 7.62775e+12
threshold=4.9518313953520918 0.46058057429867205 356.88111126013035 536.77268960677395 0.66818760826380008 0.3662289227121619 7.1600077885911499 2.8821500464310392 675.16401512996265 431.07445157233292 435.14343423146056 200.09891318394173 0.18337383300183815 766.74129115645701 826.65243353144763 372.34390715181803 630.83067681365333 719.72710168968422 578.91020178168753 0.86434369170460579 2.3293672474743157 0.66818760826380008 348.46074652160473 221.63426316425898 776.87274722127233 234.60316083294103 510.66870703434142 339.83165093154861 6.7718745132280214 622.60830105721732
decision_type=2 2 2 2 2 2 2 2 2 2 2 2 2 2 2 2 2 2 2 2 2 2 2 2 2 2 2 2 2 2
left_child=5 2 8 15 9 7 17 -1 23 18 26 -10 14 -11 -8 -4 -12 -5 -3 22 -7 27 -6 -2 -14 -20 -9 -22 -13 -24
right_child=1 4 3 6 19 20 12 10 11 13 16 28 24 -15 -16 -17 -18 -19 25 -21 21 -23 29 -25 -26 -27 -28 -29 -30 -31
leaf_value=-10644.702026794364 -5545.9212555181794 -8228.3223724480395 9173.543893212387 30528.454821908603 -11929.490673428403 -17687.068053131992 75955.786265432107 -8592.851548317265 6915.9363418986004 11145.723084647196 6578.6764506603422 20153.363275971285 49970.070589398732 40190.234181882028 113186.51850000001 30155.399161598903 33912.332086010516 54839.570382462691 -4826.8623174002414 -16347.459180013357 -12046.1548600439 -15494.733102077666 -7240.5577767051473 8064.3728409799796 72686.706656249997 13727.827266911097 5821.5765708166227 -667.32428940054092 40378.930679321289 6558.1232201051171
leaf_weight=874 244 265 194 93 418 1201 81 173 150 228 105 74 79 89 50 176 107 134 109 487 319 697 229 263 100 168 262 325 128 178
leaf_count=874 244 265 194 93 418 1201 81 173 150 228 105 74 79 89 50 176 107 134 109 487 319 697 229 263 100 168 262 325 128 178
internal_value=0 10426 27614.8 44435.2 -3556.28 -10102.6 61854.2 -3251.41 9854.44 6656.34 6735.81 21867.2 74284 19300.2 90166 19154.1 20374.4 44879.5 -738.669 -10242.7 -14202 -11080.9 -6639.11 1514.25 62660.9 6426.52 88.9419 -6303.73 32969.6 -1205.75
internal_weight=0 3937 1766 907 2171 4063 537 1521 859 859 647 352 310 317 131 370 212 227 542 1312 2542 1341 825 507 179 277 435 644 202 407
internal_count=8000 3937 1766 907 2171 4063 537 1521 859 859 647 352 310 317 131 370 212 227 542 1312 2542 1341 825 507 179 277 435 644 202 407
is_linear=0
shrinkage=0.05


Tree=6
num_leaves=31
num_cat=0
split_feature=1 3 2 0 3 1 0 3 0 2 2 3 0 2 3 0 1 0 0 3 1 2 0 2 2 3 1 2 2 0
split_gain=3.07288e+14 3.1027e+14 1.78165e+14 1.30435e+14 7.43554e+13 7.64267e+13 4.86652e+13 4.36358e+13 4.16928e+13 3.91623e+13 3.35921e+13 2.24325e+13 1.85647e+13 1.57618e+13 1.47911e+13 1.4361e+13 1.38665e+13 1.35874e+13 1.17537e+13 1.06871e+13 1.05888e+13 1.01322e+13 9.79736e+12 9.79641e+12 8.67348e+12 8.30192e+12 8.23921e+12 7.99157e+12 7.57769e+12 6.64986e+12
threshold=6.1206802181520681 0.56397798818228673 395.57748930006704 548.27929893044052 0.40386670304549671 3.2374178818551824 613.77923550242974 0.22842061728164004 597.14799177310613 319.63326407548516 273.72963807806286 0.80853688944255275 802.21273743212294 321.34643722888927 0.68769642956575106 372.34390715181803 2.6173653900620657 510.66870703434142 563.33106610238008 0.3662289227121619 1.5050381349310784 341.82226493461616 833.24655404323914 491.22296925144161 221.63426316425898 0.25983735299198668 8.1900642410944915 315.37587214722106 317.37879392503788 534.03282080628253
decision_type=2 2 2 2 2 2 2 2 2 2 2 2 2 2 2 2 2 2 2 2 2 2 2 2 2 2 2 2 2 2
left_child=4 2 6 15 5 20 24 12 27 -10 -8 13 -5 -3 16 -4 -6 -15 -18 -12 -1 -20 -9 -11 -2 -17 -14 -7 -22 -30
right_child=1 11 3 7 14 8 10 22 9 23 19 -13 26 17 -16 25 18 -19 21 -21 28 -23 -24 -25 -26 -27 -28 -29 29 -31
leaf_value=-14595.267742704506 -6378.7529746344153 -7549.9249980154755 10963.419665542016 69439.517521067421 -14819.452325577447 -9026.7887274286022 12623.278913058704 42470.446504046762 4275.0335044388221 24352.840477784666 49545.222604166665 -12913.001760600528 87588.509128289472 -4356.8324018370431 -15892.192308320678 43968.016676682695 -10945.617151722357 14442.772927291306 -6769.3607559486672 25178.735107421875 -10817.291350796197 8458.5472265183107 62651.653390330197 43173.149554753705 7202.6426230765683 21503.643689385775 121468.85845588236 4465.1744304656986 -8313.5388607249533 6954.0680677778264
leaf_weight=510 195 346 156 89 575 184 251 139 226 167 120 567 38 159 1577 78 398 243 216 72 263 221 106 118 296 87 34 272 119 178
leaf_count=510 195 346 156 89 575 184 251 139 226 167 120 567 38 159 1577 78 398 243 216 72 263 221 106 118 296 87 34 272 119 178
internal_value=0 12732.3 27097.2 45658.2 -7542.05 -176.195 12649.7 64489.9 10011.5 19819 24665.3 -5412.23 84710.7 273.507 -12565.2 21839.9 -8844.24 7007.11 -4729.58 40407.8 -9383.2 931.709 51201.9 32145.1 1808.81 32123.2 103588 -978.951 -4636.49 836.744
internal_weight=0 2976 1661 727 5024 2037 934 406 967 511 443 1315 161 748 2987 321 1410 402 835 192 1070 437 245 285 491 165 72 456 560 297
internal_count=8000 2976 1661 727 5024 2037 934 406 967 511 443 1315 161 748 2987 321 1410 402 835 192 1070 437 245 285 491 165 72 456 560 297
is_linear=0
shrinkage=0.05


Tree=7
num_leaves=31
num_cat=0
split_feature=1 3 2 0 3 1 3 2 0 0 2 3 1 2 3 0 0 0 2 0 1 3 0 2 2 0 0 2 2 2
split_gain=2.77407e+14 2.79575e+14 1.54184e+14 1.18476e+14 6.79467e+13 6.76197e+13 4.45427e+13 3.17773e+13 2.9055e+13 2.71376e+13 2.52845e+13 2.04515e+13 1.8931e+13 1.834e+13 1.83287e+13 1.61218e+13 1.53489e+13 1.44325e+13 1.42726e+13 1.3573e+13 1.12411e+13 8.97095e+12 8.95387e+12 7.83378e+12 7.79348e+12 7.41539e+12 7.1563e+12 6.90843e+12 6.71614e+12 6.67844e+12
threshold=6.1680161168373262 0.46058057429867205 354.68835286457903 568.65359006688516 0.32079872614689192 3.6131488440244119 0.66509116099921728 361.29493478247508 609.72166460081496 519.25501929565246 425.30576935543689 0.18337383300183815 2.9614301592701442 273.72963807806286 0.66124496557477064 826.65243353144763 660.71396192071575 548.27929893044052 392.33277884660254 372.34390715181803 2.0022052471039786 0.87733012504942887 594.24265010080205 408.00135507142073 354.68835286457903 748.9053801185247 645.7511399070446 467.25237101849456 513.93667172635116 502.72422456920572
decision_type=2 2 2 2 2 2 2 2 2 2 2 2 2 2 2 2 2 2 2 2 2 2 2 2 2 2 2 2 2 2
left_child=4 2 9 19 5 20 10 26 -9 -2 22 15 -6 -11 17 27 -12 -14 -19 -4 -1 24 -3 -22 -8 -13 -7 -5 -17 -10
right_child=1 6 3 11 12 7 21 8 29 13 16 25 14 -15 -16 28 -18 18 -20 -21 23 -23 -24 -25 -26 -27 -28 -29 -30 -31
leaf_value=-12064.763484611092 -759.39535235780659 -6376.7872566862061 11591.309485486529 50752.039169034091 -15004.492244102665 -4890.2070015533627 -10113.277527761034 8940.0484750600972 29832.116778449297 12683.254676745606 10858.895114991992 42135.693678042764 -9448.2961972289759 36809.895111243204 -12744.187329145614 85605.199237804889 36620.461521464647 -3786.6700976646116 13603.142634297381 32505.354811997444 -6241.0755600493812 -14836.55059166514 8625.2998041866995 8182.6388005086819 826.01339874752 61535.301841517852 9596.472347232595 77917.202187500006 119362.21086956521 49484.695419520547
leaf_weight=546 264 203 142 44 1640 171 337 169 106 250 139 76 413 115 866 41 99 292 198 171 265 341 195 146 315 140 170 50 23 73
leaf_count=546 264 203 142 44 1640 171 337 169 106 250 139 76 413 115 866 41 99 292 198 171 265 341 195 146 315 140 170 50 23 73
internal_value=0 12198.4 29338.3 45714.3 -7106.67 1235.75 -1648.24 13179.4 23808.8 11452.3 8682.8 64709.5 -11134.7 20284.8 -7547.14 78380.3 21574.8 -2563.05 3240.23 23017.2 -7363.2 -8265.1 973.482 -1117.32 -4828.19 54709.5 2331.89 65201.6 97736.6 37846.9
internal_weight=0 2945 1316 687 5055 1646 1629 689 348 629 636 374 3409 365 1769 158 238 903 490 313 957 993 398 411 652 216 341 94 64 179
internal_count=8000 2945 1316 687 5055 1646 1629 689 348 629 636 374 3409 365 1769 158 238 903 490 313 957 993 398 411 652 216 341 94 64 179
is_linear=0
shrinkage=0.05


Tree=8
num_leaves=31
num_cat=0
split_feature=1 3 2 0 0 3 2 1 2 0 3 1 3 0 0 2 1 2 0 1 0 2 3 3 2 1 0 2 2 0
split_gain=2.51906e+14 2.91673e+14 1.66542e+14 1.04296e+14 5.24155e+13 4.49098e+13 3.42548e+13 3.38039e+13 2.7498e+13 2.35071e+13 2.12141e+13 2.20556e+13 1.78978e+13 1.66775e+13 1.64625e+13 1.61409e+13 1.33274e+13 1.22272e+13 1.22048e+13 1.19889e+13 1.00423e+13 9.97643e+12 8.90414e+12 7.70521e+12 7.27493e+12 7.08899e+12 6.25282e+12 6.12353e+12 5.74228e+12 5.72315e+12
threshold=4.2468253543673731 0.46058057429867205 416.26727023994351 652.67048447528077 675.16401512996265 0.68349390812416067 265.03660989859333 7.3129405072013709 475.03702608636365 372.34390715181803 0.55520030323152481 1.9221480139072757 0.23619253933123927 766.74129115645701 527.98782505067823 394.45358344025971 7.5633486039093452 227.65605573224715 487.23694642797136 7.4731272174194583 359.04294495540017 238.48254734767497 0.89017625880978513 0.18337383300183815 397.0781586325665 7.1600077885911499 536.77268960677395 543.53895058791534 185.46554041208515 417.68924151632427
decision_type=2 2 2 2 2 2 2 2 2 2 2 2 2 2 2 2 2 2 2 2 2 2 2 2 2 2 2 2 2 2
left_child=10 2 4 9 17 8 28 23 18 -4 11 -1 27 29 -13 -16 -8 -2 -3 -11 -19 -20 24 -5 -7 -22 -26 -9 -6 -10
right_child=1 5 3 7 6 22 16 12 13 19 -12 14 -14 -15 15 -17 -18 20 21 -21 25 -23 -24 -25 26 -27 -28 -29 -30 -31
leaf_value=-12458.617874206699 -5692.8079603454698 -9102.4967115300406 9097.9203038441046 58785.285041666677 3569.1286473846435 -10430.535256938218 26091.771422991074 87112.955133928568 -759.6325867815716 23276.074830296657 -14451.32284378544 -9328.5818277399212 61500.870152243588 35610.836474048134 -3213.3901223872572 13063.742220616341 49408.357575974776 -2587.2783468609209 -5674.2876845862038 44566.30858739838 5996.602620368727 9487.9700740521494 -15133.092220815566 37883.885809725463 -8338.3170248266215 21608.635348557695 4123.640654985621 119343.5675 18133.68614119901 16437.437593518272
leaf_weight=879 294 281 165 75 140 559 140 56 82 143 1550 427 78 87 376 256 109 163 169 123 165 303 469 107 187 130 218 20 131 118
leaf_count=879 294 281 165 75 140 559 140 56 82 143 1550 427 78 87 376 256 109 163 169 123 165 303 469 107 187 130 218 20 131 118
internal_value=0 7800.95 21801.2 40203.4 10705 -3742.35 22910.7 61085.5 4166.89 23924.1 -10091.1 -6603.89 78326.4 17336.1 -1744.31 3379.88 36298.6 2264.83 -852.459 33120.8 7373 4059.11 -9482.49 46497.1 -6733.38 12876.5 -1630.4 95594.7 10609.6 9386.64
internal_weight=0 4512 2039 767 1272 2473 520 336 1040 431 3488 1938 154 287 1059 632 249 752 753 266 458 472 1433 182 964 295 405 76 271 200
internal_count=8000 4512 2039 767 1272 2473 520 336 1040 431 3488 1938 154 287 1059 632 249 752 753 266 458 472 1433 182 964 295 405 76 271 200
is_linear=0
shrinkage=0.05


Tree=9
num_leaves=31
num_cat=0
split_feature=1 3 2 0 3 1 0 3 2 0 2 3 0 0 2 2 0 3 0 0 1 2 0 3 0 1 1 3 0 0
split_gain=2.30447e+14 2.36128e+14 1.36033e+14 9.02688e+13 5.1804e+13 5.2422e+13 4.56769e+13 3.28273e+13 2.93914e+13 2.71808e+13 2.14321e+13 1.91589e+13 1.43197e+13 1.37674e+13 1.3676e+13 1.24274e+13 1.11075e+13 1.10061e+13 1.0963e+13 8.98151e+12 8.01561e+12 7.73402e+12 7.72561e+12 7.71725e+12 7.40433e+12 7.01502e+12 6.7978e+12 6.5015e+12 6.43039e+12 6.23079e+12
threshold=5.9661617117652304 0.55047234063575512 416.26727023994351 527.98782505067823 0.40386670304549671 2.9915863802160794 738.28625708219045 0.28053311831051969 385.71409980611207 654.72202787486992 265.03660989859333 0.80853688944255275 802.21273743212294 480.09579608321911 303.06414538311731 177.75129895942919 390.59719430988764 0.7891177335333307 694.02591022638069 833.24655404323914 7.7123961620659296 307.05178079671595 372.34390715181803 0.3662289227121619 722.6380394113711 3.1468365000728475 0.83452862981960485 0.22452686713006167 345.8277434861032 615.9395272415469
decision_type=2 2 2 2 2 2 2 2 2 2 2 2 2 2 2 2 2 2 2 2 2 2 2 2 2 2 2 2 2 2
left_child=4 2 6 22 5 26 15 12 24 28 -8 13 -5 -3 -15 -2 -17 18 -6 -9 -14 -20 -4 -12 -7 -23 -1 -18 -10 -28
right_child=1 11 3 7 17 8 10 19 9 -11 23 -13 20 14 -16 16 27 -19 21 -21 -22 25 -24 -25 -26 -27 29 -29 -30 -31
leaf_value=-15293.547397460938 -6658.9880676606745 -8161.8327008495589 10403.642222874601 58763.229056490389 -11609.673586953082 -4515.648876088605 14066.326149073189 33705.056129319106 -3864.3364331452744 31888.347519271101 47262.538225446428 -11253.649618026786 69928.445032051284 -3984.0928453351771 12320.716410562376 -796.09506860849808 22502.494921875001 -15193.309598563743 -9940.8432138263561 54696.494216954023 100898.31875000001 -6282.0900033321896 27484.994478681008 24663.066995614034 7487.529251823803 7041.643909929383 -10553.530351664431 8094.8386457074421 12529.276706343087 -1167.5766540980128
leaf_weight=280 181 292 142 104 1208 353 159 123 92 183 112 594 39 224 302 196 138 1018 287 87 45 185 124 57 202 212 372 181 171 337
leaf_count=280 181 292 142 104 1208 353 159 123 92 183 112 594 39 224 302 196 138 1018 287 87 45 185 124 57 202 212 372 181 171 337
internal_value=0 10669.1 23290.1 40916.8 -6749.84 -532.949 11860.3 55988.3 7533.48 17090.9 27243.1 -4418.91 71164.9 544.211 5377.22 4610.92 8571.8 -11001.3 -8745.7 42401.5 86519.4 -3687.69 18366.4 39640.2 -146.925 832.851 -8697.25 14327.6 6794.63 -6092.22
internal_weight=0 3100 1688 664 4900 1990 1024 398 1001 446 328 1412 188 818 526 696 515 2910 1892 210 84 684 266 169 555 397 989 319 263 709
internal_count=8000 3100 1688 664 4900 1990 1024 398 1001 446 328 1412 188 818 526 696 515 2910 1892 210 84 684 266 169 555 397 989 319 263 709
is_linear=0
shrinkage=0.05


Tree=10
num_leaves=31
num_cat=0
split_feature=1 3 2 0 3 0 2 3 1 2 0 0 1 0 2 1 3 2 1 1 3 0 3 0 2 2 2 0 0 2
split_gain=2.08623e+14 2.34469e+14 1.27861e+14 7.92595e+13 4.09966e+13 3.96331e+13 2.85618e+13 2.83431e+13 2.70741e+13 2.54412e+13 2.40352e+13 2.21453e+13 1.77028e+13 1.51706e+13 1.32974e+13 1.05843e+13 9.75515e+12 8.82079e+12 8.30569e+12 7.79182e+12 7.56226e+12 7.48882e+12 7.32633e+12 7.25759e+12 6.77867e+12 6.57132e+12 5.74017e+12 5.48154e+12 4.9135e+12 4.85209e+12
threshold=4.9518313953520918 0.43292332027319447 416.26727023994351 722.6380394113711 0.66818760826380008 670.1660053845452 265.03660989859333 0.34584729794517372 2.7221774234972886 323.6775187059647 420.96986949876606 510.66870703434142 7.4333340437962363 618.5238862983357 364.77420888569418 8.1069166581447423 0.15989072347404043 221.63426316425898 7.826033160024231 2.26989344200038 0.84266240723117669 359.04294495540017 0.70627644880525298 856.44847235110876 325.53423215653748 397.0781586325665 179.81013023978468 581.37285814659401 686.31873073437703 339.83165093154861
decision_type=2 2 2 2 2 2 2 2 2 2 2 2 2 2 2 2 2 2 2 2 2 2 2 2 2 2 2 2 2 2
left_child=7 2 5 10 9 17 26 8 29 -3 -4 -11 -5 -10 -15 -12 -14 -2 -8 -9 25 -19 24 -13 -21 -6 -7 -26 -27 -1
right_child=1 4 3 12 20 6 18 19 13 11 15 23 16 14 -16 -17 -18 21 -20 22 -22 -23 -24 -25 27 28 -28 -29 -30 -31
leaf_value=-12568.243368466696 -4369.917546739367 -3818.3881644610065 12288.183476389191 50345.953716216223 -8411.238611321327 3506.0226193132071 28210.681589597414 -14013.231835810026 -2129.3271991492024 -17.866866746059685 28863.225770763427 15849.569643753986 97594.896875000006 3367.9335665523645 23973.457544088684 50289.55008311171 66946.750091911759 -1334.1686924913195 48844.013703304605 -10206.509993661362 -12131.126659806301 13332.065523158482 -12570.759110295076 31949.252523118626 -6877.5044386689888 -3529.3311734256226 19448.694300870029 4565.8474092271599 10096.317888752466 -4709.2492045729914
leaf_weight=384 225 412 162 111 431 116 111 1197 337 215 149 245 42 165 149 94 68 135 87 379 593 245 631 98 203 185 110 216 103 402
leaf_count=384 225 412 162 111 431 116 111 1197 337 215 149 245 42 165 149 94 68 135 87 379 593 245 631 98 203 185 110 216 103 402
internal_value=0 8202.52 22530.6 40348.7 -2188.81 11690.8 23412.4 -7948.15 -2302.82 5605.31 27206.2 12563.3 64433.3 5238.36 13145.7 37151.6 78648.8 3476.05 37276.8 -11037.4 -7951.23 8121.69 -8544.67 20449.5 -5361.12 -4503.82 11265.7 -978.306 1343.73 -8548.76
internal_weight=0 3937 1655 626 2282 1029 424 4063 1437 970 405 558 221 651 314 243 110 605 198 2626 1312 380 1429 343 798 719 226 419 288 786
internal_count=8000 3937 1655 626 2282 1029 424 4063 1437 970 405 558 221 651 314 243 110 605 198 2626 1312 380 1429 343 798 719 226 419 288 786
is_linear=0
shrinkage=0.05


Tree=11
num_leaves=31
num_cat=0
split_feature=1 3 2 0 3 1 3 2 0 0 2 3 0 3 1 3 0 0 2 2 3 2 1 0 2 0 0 0 2 0
split_gain=1.91122e+14 1.89571e+14 1.11026e+14 9.77836e+13 4.70489e+13 4.59809e+13 3.18414e+13 2.24486e+13 2.032e+13 1.81424e+13 1.39611e+13 1.37239e+13 1.34553e+13 1.26112e+13 1.11171e+13 1.09852e+13 1.0754e+13 9.80957e+12 9.68249e+12 9.32409e+12 8.64055e+12 8.58549e+12 7.96961e+12 7.22227e+12 6.25766e+12 5.22725e+12 5.06912e+12 5.03179e+12 4.94443e+12 4.83787e+12
threshold=6.1680161168373262 0.56397798818228673 307.05178079671595 625.26941614041732 0.32079872614689192 3.6131488440244119 0.26447683398546645 361.29493478247508 686.31873073437703 413.88491318462428 473.39542351534163 0.80853688944255275 591.39101164814861 0.63454518468074783 2.8478003781837948 0.25983735299198668 613.77923550242974 548.27929893044052 499.07979336386285 310.55875489610895 0.2735542881335935 281.64547202741591 1.2635244898679872 534.03282080628253 243.04144747688284 879.97003279792591 473.75536553524859 719.72710168968422 175.61516566560084 900.45743773128777
decision_type=2 2 2 2 2 2 2 2 2 2 2 2 2 2 2 2 2 2 2 2 2 2 2 2 2 2 2 2 2 2
left_child=4 2 12 9 5 22 10 27 26 -4 29 16 -2 14 -6 -11 -3 -16 -8 -19 28 -18 -1 -24 -25 -12 -9 -7 -14 -5
right_child=1 11 3 6 13 7 18 8 -10 15 25 -13 20 -15 17 -17 21 19 -20 -21 -22 -23 23 24 -26 -27 -28 -29 -30 -31
leaf_value=-12222.392154562685 -2262.2400911235814 -5278.5280209173789 8038.9245586056177 45574.616249999999 -10682.999436387012 -3081.9484115710625 29644.166808784299 2337.1279571821105 34730.400876783293 36916.250199854658 69349.024098557697 -10050.482217701503 8489.7730107060179 -12055.579909307871 -7943.1420566539864 16891.449971489059 -2774.4931607253261 -5439.4921817685126 48924.487340856489 8763.7231454918128 4034.5201848347988 13338.531582103056 -9043.376793703057 -7655.6820863921066 6450.29668317701 95033.441992187509 17874.451870258039 9370.3858045993893 27232.651527691833 68327.384280303027
leaf_weight=338 320 397 270 80 693 208 164 106 138 129 52 560 54 1842 402 146 139 202 108 270 156 204 259 116 244 32 104 133 101 33
leaf_count=338 320 397 270 80 693 208 164 106 138 129 52 560 54 1842 402 146 139 202 108 270 156 204 259 116 244 32 104 133 101 33
internal_value=0 10125.1 21402.3 31649.2 -5898.78 1043.2 48387 10892.1 19826.1 17245.6 63695.4 -4144.95 4935.68 -9250.63 -5953.44 26284.9 324.095 -2203.34 37299.6 2685.23 12341.9 6808.76 -6047.64 -2675.96 1905.04 79133.6 10031.8 1774.83 20702.9 52219.2
internal_weight=0 2945 1645 1014 5055 1646 469 689 348 545 197 1300 631 3409 1567 275 740 874 272 472 311 343 957 619 360 84 210 341 155 113
internal_count=8000 2945 1645 1014 5055 1646 469 689 348 545 197 1300 631 3409 1567 275 740 874 272 472 311 343 957 619 360 84 210 341 155 113
is_linear=0
shrinkage=0.05


Tree=12
num_leaves=31
num_cat=0
split_feature=1 3 2 0 3 1 3 2 0 2 2 1 0 3 0 3 2 0 0 0 2 1 3 2 2 0 2 2 0 3
split_gain=1.72487e+14 1.71809e+14 9.56797e+13 7.82875e+13 4.24616e+13 4.14977e+13 2.73941e+13 2.06574e+13 2.09722e+13 1.92519e+13 1.80391e+13 1.17681e+13 1.16271e+13 1.12805e+13 1.12212e+13 1.04581e+13 9.27956e+12 9.19027e+12 7.81697e+12 7.51856e+12 7.40766e+12 7.27138e+12 7.13742e+12 6.46882e+12 6.39111e+12 6.13699e+12 5.49728e+12 4.98008e+12 4.95731e+12 4.87876e+12
threshold=6.1680161168373262 0.46058057429867205 307.05178079671595 568.65359006688516 0.32079872614689192 3.6131488440244119 0.69579145741634907 279.65129481510149 609.72166460081496 465.48931680923607 465.48931680923607 2.9614301592701442 441.1146667106089 0.15989072347404043 480.09579608321911 0.66124496557477064 402.07544094012331 300.46957792392487 566.332332025244 521.50137422076921 502.72422456920572 1.5412876733930687 0.093145890397618863 361.29493478247508 200.09891318394173 802.21273743212294 225.6583341612077 493.40388673679348 802.21273743212294 0.89017625880978513
decision_type=2 2 2 2 2 2 2 2 2 2 2 2 2 2 2 2 2 2 2 2 2 2 2 2 2 2 2 2 2 2
left_child=4 2 12 17 5 21 10 -7 -9 22 18 -6 -2 25 -12 16 -13 -4 -3 -18 -10 -1 -5 -23 -14 -11 -20 -19 -26 -8
right_child=1 6 3 9 11 7 29 8 20 13 14 15 24 -15 -16 -17 19 27 26 -21 -22 23 -24 -25 28 -27 -28 -29 -30 -31
leaf_value=-10757.961828850312 -4560.1715950788848 -5963.7469030135726 5171.404127144192 56383.029190340909 -11839.17032780531 -1532.1682079618447 -4395.9798821964787 5620.3151817044345 21095.114125634456 61643.772275641029 2862.7993353949655 -6227.0478149855553 4401.6513690148995 50685.742317708333 26125.301345486114 -9885.2367803300513 -4139.0608613057857 16696.957697123868 -4054.916049049014 10634.754563601731 40373.169306506854 -6970.5166664252847 33966.278954016649 3961.4890792724614 11600.775614172895 90706.557352941192 11382.076150446353 31188.792106119796 28630.793772977941 -12138.570469380042
leaf_weight=412 167 234 115 44 1640 239 592 220 157 39 81 553 167 132 144 866 153 155 84 197 73 295 184 250 115 34 184 96 68 310
leaf_count=412 167 234 115 44 1640 239 592 220 157 39 81 553 167 132 144 866 153 155 84 197 73 295 184 250 115 34 184 96 68 310
internal_value=0 9618.81 23055.2 33900.1 -5603.84 991.036 -1235.9 10347.5 16657 48289.4 5986.39 -8788.1 6294.99 59408 17750.8 -5959.53 -2194.67 16876.7 713.491 4176.49 27213.8 -5745.26 38292.3 -1955.84 11474.5 75179.9 6543.62 22239.7 17928.9 -7056.96
internal_weight=0 2945 1316 799 5055 1646 1629 689 450 433 727 3409 517 205 225 1769 903 366 502 350 230 957 228 545 350 73 268 251 183 902
internal_count=8000 2945 1316 799 5055 1646 1629 689 450 433 727 3409 517 205 225 1769 903 366 502 350 230 957 228 545 350 73 268 251 183 902
is_linear=0
shrinkage=0.05


Tree=13
num_leaves=31
num_cat=0
split_feature=1 3 2 0 0 3 1 2 2 0 1 3 0 2 0 1 2 0 3 2 0 0 0 0 0 0 1 3 1 2
split_gain=1.56054e+14 1.8012e+14 1.02035e+14 6.25204e+13 3.31394e+13 3.10232e+13 2.63601e+13 2.0417e+13 2.0082e+13 1.72265e+13 1.36713e+13 1.34637e+13 1.2045e+13 1.18617e+13 1.02258e+13 8.66861e+12 7.86179e+12 7.70132e+12 6.83243e+12 6.70123e+12 6.52761e+12 6.33375e+12 6.25093e+12 6.21155e+12 6.03405e+12 5.22158e+12 5.03801e+12 4.62781e+12 4.52431e+12 4.2319e+12
threshold=4.2468253543673731 0.43292332027319447 416.26727023994351 525.26608773133682 675.16401512996265 0.66509116099921728 8.1900642410944915 265.03660989859333 378.30590778914706 766.74129115645701 2.0022052471039786 0.60314041510395067 900.45743773128777 451.18230458555252 802.21273743212294 7.826033160024231 221.63426316425898 527.98782505067823 0.89017625880978513 269.92526357369496 359.04294495540017 372.34390715181803 622.60830105721732 587.98556859340181 355.96213858529762 557.32262516311528 8.7483169366786129 0.16533436048918437 8.3926206008955972 157.67366676135805
decision_type=2 2 2 2 2 2 2 2 2 2 2 2 2 2 2 2 2 2 2 2 2 2 2 2 2 2 2 2 2 2
left_child=10 2 4 21 16 8 12 29 23 24 -1 13 -5 25 -8 -9 -2 -15 19 -7 -18 -4 -21 -3 -10 -12 -22 -16 -11 -6
right_child=1 5 3 6 7 18 14 15 9 28 11 -13 -14 17 27 -17 20 -19 -20 22 26 -23 -24 -25 -26 -27 -28 -29 -30 -31
leaf_value=-11219.878329687854 -4821.1520544640107 -7577.3584848424289 7561.2078213345485 31306.031083504102 551.30356471849529 -9979.6148983226103 50942.095000000001 22296.386602909482 -4397.1248227632959 20657.497787150933 -9552.3151977539073 -10377.248975442857 56834.424725877194 -2859.9869788570682 94742.769499999995 42406.525238970586 -2186.2349537843352 12464.17508055432 -12039.967756044432 -6079.630948439888 7005.4990350957514 22679.15956794985 3680.5179812457109 2776.329822471389 9884.8812550950806 -1317.071827736163 22979.299747333833 66223.094981060611 40562.261966463419 14056.281173258983
leaf_weight=1664 266 281 157 244 92 391 80 145 104 94 344 703 57 138 25 85 157 202 469 368 228 124 296 299 256 437 63 33 41 157
leaf_count=1664 266 281 157 244 92 391 80 145 104 94 344 703 57 138 25 85 157 202 469 368 228 124 296 299 256 437 63 33 41 157
internal_value=0 6139.97 17784.2 32648.4 8813.39 -2430.81 44436.3 18987.7 4073.46 11470.9 -7942.53 -4952.67 36140.3 -1550.82 62531.2 29728.4 1987.79 6244.37 -7018.8 -4786.64 6030.6 14232.5 -1728.72 -2239.85 5758.97 -4944.37 10463.7 78516.1 26702.6 9066.49
internal_weight=0 4512 1913 720 1193 2599 439 479 1075 495 3488 1824 301 1121 138 230 714 340 1524 1055 448 281 664 580 360 781 291 58 135 249
internal_count=8000 4512 1913 720 1193 2599 439 479 1075 495 3488 1824 301 1121 138 230 714 340 1524 1055 448 281 664 580 360 781 291 58 135 249
is_linear=0
shrinkage=0.05


Tree=14
num_leaves=31
num_cat=0
split_feature=1 3 2 0 3 1 3 0 2 2 0 3 2 0 1 3 0 2 2 1 0 2 0 0 1 2 0 2 2 3
split_gain=1.44406e+14 1.37716e+14 7.38917e+13 5.79959e+13 4.08264e+13 3.75092e+13 2.18897e+13 2.06912e+13 1.68663e+13 1.5e+13 1.46116e+13 1.16475e+13 1.14421e+13 1.14149e+13 9.34683e+12 8.8088e+12 8.69055e+12 7.84881e+12 7.2658e+12 6.15231e+12 6.25605e+12 6.11449e+12 5.93435e+12 5.59468e+12 5.57014e+12 4.98231e+12 4.79162e+12 4.46715e+12 4.19482e+12 3.91093e+12
threshold=6.542299574716794 0.46058057429867205 354.68835286457903 568.65359006688516 0.31758353337530071 3.6131488440244119 0.69579145741634907 719.72710168968422 372.12029275912874 307.05178079671595 802.21273743212294 0.18337383300183815 394.45358344025971 497.23195155599734 2.6173653900620657 0.80042914889267902 581.37285814659401 561.73426121806506 361.29493478247508 1.2205865962860942 627.99244303240846 200.09891318394173 413.88491318462428 459.61589368550864 9.1567262781972847 520.07335562945502 480.09579608321911 515.3227006435485 243.04144747688284 0.89017625880978513
decision_type=2 2 2 2 2 2 2 2 2 2 2 2 2 2 2 2 2 2 2 2 2 2 2 2 2 2 2 2 2 2
left_child=4 2 10 22 5 19 9 18 -9 -3 23 17 -6 -11 -14 16 -16 24 -7 -1 -21 -12 -4 -2 -5 -13 -20 -15 -22 -8
right_child=1 6 3 11 12 7 29 8 -10 13 21 25 14 27 15 -17 -18 -19 26 20 28 -23 -24 -25 -26 -27 -28 -29 -30 -31
leaf_value=-10658.491405044369 -1817.1599786071001 -3311.8665083736182 10862.825462055822 48384.320542763162 -10081.938544307975 -2852.6607394863699 -3612.8228619520655 9168.5318670810793 33354.531765974818 1062.4516882439182 9110.2736980296959 34510.190187800486 -9322.431976688591 14142.887686736009 -4133.3148299632931 -9240.7924788743621 7438.851532736332 87174.050297619062 2657.8800872318329 -6760.7751366751536 -5790.5778161059861 30181.239732730261 25348.58724261944 9783.4609525091 74120.211574074085 51552.348730468751 16648.445173093653 28479.8534414557 7412.4779621143825 -10863.126507826255
leaf_weight=324 197 256 155 95 2150 235 539 156 134 146 54 130 577 174 312 245 338 21 126 336 87 95 130 220 27 64 119 79 195 284
leaf_count=324 197 256 155 95 2150 235 539 156 134 146 54 130 577 174 312 245 338 21 126 336 87 95 130 220 27 64 119 79 195 284
internal_value=0 9501.99 22177.4 34072.6 -4749.21 1613.41 -686.325 9799.33 20344.1 6134.43 9105.22 48113 -7756.62 12195.2 -4360.26 -1161.18 1884.21 58939.9 3428.51 -5077.83 -2152.05 22544.8 17470.4 4303.07 54080 40132.3 9453.3 18619.6 3339.19 -6114.75
internal_weight=0 2666 1188 622 5334 1712 1478 770 290 655 566 337 3622 399 1472 895 650 143 480 942 618 149 285 417 122 194 245 253 282 823
internal_count=8000 2666 1188 622 5334 1712 1478 770 290 655 566 337 3622 399 1472 895 650 143 480 942 618 149 285 417 122 194 245 253 282 823
is_linear=0
shrinkage=0.05


Tree=15
num_leaves=31
num_cat=0
split_feature=1 3 2 3 1 0 2 3 0 2 0 0 0 0 1 2 0 2 2 3 3 0 3 2 2 2 3 2 1 0
split_gain=1.30858e+14 1.1367e+14 5.33098e+13 4.5431e+13 4.48699e+13 4.21133e+13 3.25409e+13 2.70791e+13 2.30959e+13 1.8541e+13 1.51072e+13 1.26702e+13 1.10393e+13 1.06707e+13 7.93458e+12 7.28381e+12 7.24016e+12 7.21442e+12 6.98943e+12 6.37984e+12 6.34091e+12 6.03567e+12 5.50711e+12 5.23025e+12 5.18981e+12 5.18556e+12 4.87449e+12 4.8536e+12 4.28955e+12 4.0716e+12
threshold=7.0878905306059812 0.38278405459676296 366.36608965258989 0.52516205820713802 3.7187275185253355 719.72710168968422 423.34234399503003 0.6469982577198794 719.72710168968422 279.65129481510149 660.71396192071575 506.76216519907035 742.513929377502 466.50529402715489 1.5412876733930687 232.34357424989523 345.8277434861032 296.83926823220412 273.72963807806286 0.18797295329902894 0.15989072347404043 642.00815660085516 0.86052456102650876 395.57748930006704 483.846826154251 491.22296925144161 0.84266240723117669 409.77009752431212 2.1311786375927655 622.60830105721732
decision_type=2 2 2 2 2 2 2 2 2 2 2 2 2 2 2 2 2 2 2 2 2 2 2 2 2 2 2 2 2 2
left_child=3 2 11 4 14 13 12 9 16 -3 -11 -2 -6 -4 -1 -14 -8 -16 -13 -10 -7 -19 23 -5 -12 -15 27 -9 -25 -30
right_child=1 7 5 22 6 20 8 26 19 10 24 18 15 25 17 -17 -18 21 -20 -21 -22 -23 -24 28 -26 -27 -28 -29 29 -31
leaf_value=-9762.0619393109209 1528.9104467628977 -2468.986139190949 16111.537189767021 -9468.4918251828694 -2903.1474403468046 71887.116756465519 -2260.544424758185 -5079.6238087124293 42482.251852678572 6860.9929342114374 19385.727128405451 12963.418568776136 -906.37654310323433 27101.288399465458 -7833.7888158404639 15025.469582712976 13697.49977661133 -3525.4754383939239 30200.872995923914 23488.443741861978 50544.083548850576 7338.8405297530326 -12274.130058730072 -9897.5265267851064 36447.229774305561 46764.517500000002 -8986.2931355794262 5594.2135069754004 -5805.6287038481933 2821.8248564372693
leaf_weight=673 169 222 140 1138 616 58 105 288 70 233 117 163 118 76 378 183 220 291 92 120 87 228 788 229 72 60 348 169 291 258
leaf_count=673 169 222 140 1138 616 58 105 288 70 233 117 163 118 76 378 183 220 291 92 120 87 228 788 229 72 60 348 169 291 258
internal_value=0 10085.4 24660.2 -4054.67 179.592 37263.6 6580.19 1585.98 16637.8 9227.99 15381.4 12146 931.701 25801.4 -5658.41 8779.76 8541.82 -2579.52 19182.4 30486.2 59081.3 1247.29 -8755.58 -7308.5 25885.3 35776.2 -4527.63 -1132.41 -4149.02 -1751.2
internal_weight=0 2294 845 5706 3002 421 1432 1449 515 644 422 424 917 276 1570 301 325 897 255 190 145 519 2704 1916 189 136 805 457 778 549
internal_count=8000 2294 845 5706 3002 421 1432 1449 515 644 422 424 917 276 1570 301 325 897 255 190 145 519 2704 1916 189 136 805 457 778 549
is_linear=0
shrinkage=0.05


Tree=16
num_leaves=31
num_cat=0
split_feature=1 3 2 0 3 0 2 3 1 0 2 2 0 1 0 0 3 0 2 1 0 2 1 0 1 1 0 2 2 3
split_gain=1.18888e+14 1.26846e+14 6.46541e+13 4.34895e+13 2.732e+13 2.36749e+13 2.18172e+13 2.15706e+13 1.90691e+13 1.79211e+13 1.32223e+13 1.2257e+13 1.20793e+13 8.13133e+12 7.14192e+12 5.61099e+12 5.50917e+12 6.53956e+12 5.47872e+12 5.42648e+12 4.77425e+12 4.76906e+12 4.45693e+12 4.45569e+12 4.28068e+12 3.99409e+12 3.66092e+12 3.61799e+12 3.60729e+12 3.5902e+12
threshold=5.4115239458969313 0.38278405459676296 416.26727023994351 722.6380394113711 0.66509116099921728 657.41703464831232 323.6775187059647 0.35801137389861326 2.7221774234972886 662.82461131201524 465.48931680923607 265.03660989859333 420.96986949876606 8.1900642410944915 675.16401512996265 413.88491318462428 0.79304134324931963 708.90362251721797 232.34357424989523 8.3926206008955972 757.17598962682689 177.75129895942919 8.3926206008955972 352.68971400596337 1.621928072341295 8.3926206008955972 606.10840678340776 339.83165093154861 513.93667172635116 0.89017625880978513
decision_type=2 2 2 2 2 2 2 2 2 2 2 2 2 2 2 2 2 2 2 2 2 2 2 2 2 2 2 2 2 2
left_child=7 2 5 12 6 21 26 8 27 23 15 -7 -4 -5 -12 -10 17 -9 -17 -11 -6 -2 -14 -8 -19 -13 -3 -1 -15 -22
right_child=1 4 3 13 20 11 9 16 10 19 14 25 22 28 -16 18 -18 24 -20 -21 29 -23 -24 -25 -26 -27 -28 -29 -30 -31
leaf_value=-9739.2757110595703 -5235.6117040507006 -7366.2528372975576 11308.149458760427 45603.105870752428 -7634.1848979313409 11250.425598250375 -3795.5917829165251 -8655.8153422206906 -7861.8755438273383 16058.972503025549 7204.2969200020416 24494.576665482957 24585.872212837839 57827.712760416667 25071.370324707033 -4044.9512468445973 -11310.2617489604 -9384.9485978015364 7576.6072941698358 31043.720320638022 2421.0430389729581 6294.3679834500172 40241.122980925327 8207.0332657894851 31.473607825002365 40531.892916666664 1653.465011225428 -3062.1812594927273 81756.48828125 -8436.9117472330745
leaf_weight=396 120 226 133 103 833 173 115 1263 149 163 134 110 111 36 96 159 914 163 280 96 258 355 77 236 465 60 224 416 28 108
leaf_count=396 120 226 133 103 833 173 115 1263 149 163 134 110 111 36 96 159 914 163 280 96 258 355 77 236 465 60 224 416 28 108
internal_value=0 6798.46 19202.6 33605.9 -372.755 10609.9 5475.26 -5464.82 -890.497 11636.4 4497.69 20619.9 22839.8 54300 14661.9 521.91 -8122.99 -6582.45 3367.43 21613.2 -5542.81 3381.53 30997.9 4274.55 -2412.6 30154.8 -2876.44 -6318.5 68296.6 -782.944
internal_weight=0 3565 1306 488 2259 818 1060 4435 1630 610 818 343 321 167 230 588 2805 1891 439 259 1199 475 188 351 628 170 450 812 64 366
internal_count=8000 3565 1306 488 2259 818 1060 4435 1630 610 818 343 321 167 230 588 2805 1891 439 259 1199 475 188 351 628 170 450 812 64 366
is_linear=0
shrinkage=0.05


Tree=17
num_leaves=31
num_cat=0
split_feature=1 3 2 0 3 1 2 3 0 0 0 2 0 3 3 0 2 0 1 2 1 0 2 3 2 2 2 3 2 0
split_gain=1.08596e+14 9.33407e+13 5.35494e+13 4.52514e+13 3.72471e+13 3.36071e+13 2.08466e+13 1.42166e+13 1.20309e+13 1.13091e+13 1.12865e+13 1.02784e+13 9.63026e+12 1.00008e+13 7.83368e+12 7.7179e+12 6.6164e+12 6.57429e+12 6.49123e+12 5.79029e+12 5.22954e+12 5.27212e+12 5.06555e+12 4.9086e+12 4.88678e+12 4.63021e+12 4.50093e+12 4.2016e+12 4.20131e+12 3.99638e+12
threshold=7.0878905306059812 0.56397798818228673 354.68835286457903 630.83067681365333 0.33751149558002441 3.6131488440244119 483.846826154251 0.18337383300183815 818.53383299014706 483.34567477976947 742.513929377502 305.37595688442258 630.83067681365333 0.66509116099921728 0.80853688944255275 393.6418939063974 245.38536743101841 487.23694642797136 3.7527980890099304 520.07335562945502 0.83452862981960485 534.03282080628253 225.6583341612077 0.25983735299198668 167.77197980957064 513.93667172635116 337.22756547954731 0.21156845617483733 179.81013023978468 791.90019063757006
decision_type=2 2 2 2 2 2 2 2 2 2 2 2 2 2 2 2 2 2 2 2 2 2 2 2 2 2 2 2 2 2
left_child=4 2 8 15 5 20 10 25 24 -8 -7 -6 -13 18 17 -4 -12 -3 -14 -9 -1 -22 -19 -17 -2 -5 -23 -26 -10 -11
right_child=1 14 3 7 11 6 9 19 28 29 16 12 13 -15 -16 23 -18 22 -20 -21 21 26 -24 -25 27 -27 -28 -29 -30 -31
leaf_value=-10963.834596077128 -4558.6317059633539 -5349.3638568086453 7813.0324646156951 49390.293636775365 -9677.3615632995115 201.87406077236247 5248.7272585700548 28644.571468321916 6234.2802597418067 23933.621066406253 2015.506238388434 -7337.1261695268222 -1306.2052121870747 -5666.4266076078284 -7310.4535740983601 30097.17277879902 19558.349086820162 -4763.5704726108288 10335.165252223938 46584.818533653852 -7427.6242455625688 -4233.0540249988653 9189.3777538285267 14696.513934355236 14020.180139614138 71933.975000000006 5747.6853542808731 2227.4486588359473 25133.22913536659 41022.882872596158
leaf_weight=235 139 212 166 69 1573 481 68 146 41 100 82 1221 241 493 436 102 156 86 238 65 313 215 267 105 121 34 238 201 104 52
leaf_count=235 139 212 166 69 1573 481 68 146 41 100 82 1221 241 493 436 102 156 86 238 65 313 215 267 105 121 34 238 201 104 52
internal_value=0 9187.56 18061.7 27618.4 -3693.7 1934.76 8729.44 41604.5 7227.67 22197.6 4608.45 -6593.12 -4380.85 -667.258 -2275.25 15844.5 13514.2 1610.32 4478.02 34171.2 -4439.07 -2437.34 5790.08 22285.2 3276.59 56831.9 1010.69 6658.88 19789.4 29779.9
internal_weight=0 2294 1293 687 5706 1940 939 314 606 220 719 3766 2193 972 1001 373 238 565 479 211 1001 766 353 207 461 103 453 322 145 152
internal_count=8000 2294 1293 687 5706 1940 939 314 606 220 719 3766 2193 972 1001 373 238 565 479 211 1001 766 353 207 461 103 453 322 145 152
is_linear=0
shrinkage=0.05


Tree=18
num_leaves=31
num_cat=0
split_feature=1 3 2 0 3 0 2 3 1 2 0 0 0 1 2 0 2 3 0 2 3 2 0 1 1 2 0 1 1 2
split_gain=9.83928e+13 1.07977e+14 5.51763e+13 3.67634e+13 2.29107e+13 2.08086e+13 1.78969e+13 1.57887e+13 1.61581e+13 1.30975e+13 1.20901e+13 1.03938e+13 1.00568e+13 7.72338e+12 7.70006e+12 7.5948e+12 6.72641e+12 5.94918e+12 5.66902e+12 5.47395e+12 5.47315e+12 4.86241e+12 4.59441e+12 4.50085e+12 4.20884e+12 3.12791e+12 3.03049e+12 3.00054e+12 2.96544e+12 2.95079e+12
threshold=5.1772834361428322 0.38278405459676296 416.26727023994351 722.6380394113711 0.62677252029423369 760.29295662111974 475.03702608636365 0.58086437788388645 2.2276143850907979 279.65129481510149 494.02903172304917 372.34390715181803 545.33156573495546 8.1900642410944915 265.03660989859333 447.16549227255592 234.60316083294103 0.20799542659756251 459.61589368550864 260.81297427226679 0.84266240723117669 276.12652670318454 622.60830105721732 8.3528618243613355 8.315885545897542 518.78050944146355 889.87001453543576 0.68300287702068541 8.3926206008955972 513.93667172635116
decision_type=2 2 2 2 2 2 2 2 2 2 2 2 2 2 2 2 2 2 2 2 2 2 2 2 2 2 2 2 2 2
left_child=7 2 5 11 6 18 15 8 27 -10 -11 -4 -8 -5 -7 -3 -17 25 -2 -6 22 -20 -21 -13 -14 -12 -18 -1 -16 -15
right_child=1 4 3 13 19 14 12 -9 9 10 17 23 24 29 28 16 26 -19 21 20 -22 -23 -24 -25 -26 -27 -28 -29 -30 -31
leaf_value=-11525.142798485695 -783.8042170605969 -6506.6783520437275 8160.3049994161865 40622.593861607143 -8899.2532106173767 12130.130623739275 4862.4129991319451 -8818.7767274921262 -5587.0614418403129 -2983.7682928090794 11873.652506717755 21075.900549404229 18577.722159996814 52927.828559027781 24025.298940373566 -3167.416250110346 6480.0269767970667 4926.6194014872408 3814.6395626964777 -3234.152697184245 -7000.0408135299076 16687.278478803793 6068.930438745323 35628.883948037794 35860.071605113641 25729.525163352275 18429.44953358209 -5642.7333538409794 39612.138779920213 74569.893861607154
leaf_weight=308 293 219 115 112 490 122 108 1769 516 349 157 139 98 36 87 177 255 363 184 300 373 122 238 86 55 55 67 732 47 28
leaf_count=308 293 219 115 112 490 122 108 1769 516 349 157 139 98 36 87 177 255 363 184 300 373 122 238 86 55 55 67 732 47 28
internal_value=0 5901.69 17078.8 29990.6 -536.909 9286.47 5331.61 -5209.99 -2635.82 794.022 4357.48 20388.4 16544.3 48540.3 21218.2 1255.69 4662.42 8813.3 4187.12 -4637.75 -2345.62 8946.87 881.338 26638.4 24790.3 15468.3 8966.4 -7384.83 29492.3 62396.2
internal_weight=0 3751 1371 516 2380 855 979 4249 2480 1440 924 340 261 176 256 718 499 575 599 1401 911 306 538 225 153 212 322 1040 134 64
internal_count=8000 3751 1371 516 2380 855 979 4249 2480 1440 924 340 261 176 256 718 499 575 599 1401 911 306 538 225 153 212 322 1040 134 64
is_linear=0
shrinkage=0.05


Tree=19
num_leaves=31
num_cat=0
split_feature=1 3 0 3 2 1 2 3 2 0 0 0 2 0 2 1 0 2 0 2 3 2 0 3 0 1 3 0 2 3
split_gain=9.02635e+13 7.74472e+13 3.76067e+13 3.09282e+13 3.05655e+13 3.03992e+13 2.35994e+13 1.86655e+13 1.31191e+13 1.19195e+13 1.16549e+13 1.12477e+13 9.12093e+12 8.01082e+12 6.98692e+12 5.78868e+12 5.80988e+12 5.71916e+12 4.26227e+12 4.21809e+12 4.18985e+12 4.22099e+12 4.00601e+12 3.89945e+12 3.8541e+12 3.81138e+12 3.6623e+12 3.5751e+12 3.4754e+12 3.21655e+12
threshold=7.0878905306059812 0.37456365173916556 527.98782505067823 0.52516205820713802 387.14105143904288 3.7187275185253355 483.846826154251 0.62677252029423369 279.65129481510149 722.6380394113711 597.14799177310613 836.00847576264584 239.64777348938614 802.21273743212294 437.23091238803181 1.2205865962860942 729.65802928782966 167.77197980957064 355.96213858529762 352.08973962083769 0.86052456102650876 437.23091238803181 833.24655404323914 0.89017625880978513 345.8277434861032 9.0032607037750179 0.16533436048918437 654.72202787486992 223.74390568211081 0.14802434143725193
decision_type=2 2 2 2 2 2 2 2 2 2 2 2 2 2 2 2 2 2 2 2 2 2 2 2 2 2 2 2 2 2
left_child=3 2 14 5 17 15 10 8 -3 24 -7 18 -12 -6 -2 -1 -17 -4 -10 -9 21 -5 -19 27 -8 -15 -14 -21 -18 -11
right_child=1 7 4 20 13 6 9 19 11 29 12 -13 26 25 -16 16 28 22 -20 23 -22 -23 -24 -25 -26 -27 -28 -29 -30 -31
leaf_value=-8872.2168143717445 2947.6289774352758 -2107.3478687341135 4420.862231031515 -7599.4675620128928 35106.557888104835 -3292.6998460198843 -1085.2463220757952 -6751.2237720515695 -1808.7470928794462 41191.87884615385 -1402.8562757604263 27490.330558894231 19164.60419753502 47763.549467329547 17823.992622615089 -5140.0484021690081 -5140.3621183434316 16477.821830574412 11849.039839504076 -1158.0578273473161 -10315.234977698932 -2574.7344124713504 30986.037760416672 -7516.7734749371075 14042.725235836522 69510.669181034478 8291.5268105175364 10036.549508868948 5994.1508357350422 23880.230455123547
leaf_weight=540 227 209 59 1300 124 548 59 437 76 39 204 104 116 66 121 686 98 122 230 178 788 616 78 115 147 29 233 119 246 86
leaf_count=540 227 209 59 1300 124 548 59 437 76 39 204 104 116 66 121 686 98 122 230 178 788 616 78 115 147 29 233 119 246 86
internal_value=0 8376.26 20623.8 -3367.53 29726.9 126.118 5394.46 1484.93 8087.84 17101 1875.06 13284.9 6996.09 43476.8 8120.16 -4679.15 -2480.84 18100.5 8456.91 -3329.21 -7246.21 -5984 22136 300.452 9709.96 54402.1 11905.5 3327.32 2822.11 29281.5
internal_weight=0 2294 826 5706 478 3002 1432 1468 619 331 1101 410 553 219 348 1570 1030 259 306 849 2704 1916 200 412 206 95 349 297 344 125
internal_count=8000 2294 826 5706 478 3002 1432 1468 619 331 1101 410 553 219 348 1570 1030 259 306 849 2704 1916 200 412 206 95 349 297 344 125
is_linear=0
shrinkage=0.05


Tree=20
num_leaves=31
num_cat=0
split_feature=1 3 2 0 1 3 0 2 1 2 2 0 2 2 3 0 1 0 0 0 3 0 1 2 3 1 0 2 3 0
split_gain=8.16829e+13 9.07457e+13 5.45308e+13 4.53371e+13 2.01735e+13 1.64806e+13 1.39488e+13 8.51867e+12 8.16686e+12 8.21244e+12 7.88939e+12 7.50239e+12 7.3129e+12 6.86125e+12 5.88171e+12 5.87313e+12 5.5133e+12 5.34137e+12 4.64172e+12 4.24881e+12 3.78374e+12 3.54693e+12 3.53351e+12 3.4819e+12 3.20853e+12 3.12891e+12 3.08604e+12 2.86057e+12 2.78316e+12 2.32125e+12
threshold=4.2468253543673731 0.43292332027319447 307.05178079671595 513.60441764617246 8.1900642410944915 0.72720625736065825 789.04220738100787 380.09063238427814 1.5050381349310784 411.97142631287392 491.22296925144161 441.1146667106089 565.04531009528694 447.29739802331028 0.70298237530457375 470.05145649288983 8.4209366920150526 900.45743773128777 286.24479211823041 789.04220738100787 0.18100665141303404 355.96213858529762 7.5633486039093452 149.88563161951814 0.22842061728164004 8.3926206008955972 706.07179363527325 215.8888899574944 0.14467296722873782 830.03171840799644
decision_type=2 2 2 2 2 2 2 2 2 2 2 2 2 2 2 2 2 2 2 2 2 2 2 2 2 2 2 2 2 2
left_child=8 2 11 18 10 6 13 -8 -1 24 20 -2 19 27 15 -11 23 -12 -4 28 29 -15 -20 -13 -10 -9 -7 -3 -6 -5
right_child=1 5 3 4 12 26 7 25 9 14 17 16 -14 21 -16 -17 -18 -19 22 -21 -22 -23 -24 -25 -26 -27 -28 -29 -30 -31
leaf_value=-8987.6330521510208 -5083.8630245144086 -8348.5554637719069 -667.55719626767802 18469.049772892442 39802.592258522731 -7725.4890230716428 3966.7314082058992 15044.120102216613 -1889.7731345403763 -4009.6266544380578 25638.287051782856 -5281.0211644789752 66745.387092391305 -3232.7841892787392 -6606.4761541533899 6695.7059353494769 14445.834413915649 46768.891638513516 5789.1418805454805 45048.37779651989 11883.660186625637 8393.762597396526 16695.910814483406 5459.4240382858807 -7463.5537374547785 30780.183333333334 -2585.9793644701313 -1422.2440203379338 23360.022253024195 32696.98808139535
leaf_weight=1248 236 221 137 86 44 777 198 106 336 198 156 102 23 91 228 363 133 37 175 88 172 235 129 290 1115 45 468 458 62 43
leaf_count=1248 236 221 137 86 44 777 198 106 336 198 156 102 23 91 228 363 133 37 175 88 172 235 129 290 1115 45 468 458 62 43
internal_value=0 4442.16 12707.2 19568.4 27380.2 -1641.33 2176.61 10788.5 -5746.28 -3940.39 21798.2 2320.73 40087.7 -813.998 165.22 2917.35 5649.27 29689.2 6973.73 36927.3 16738.5 5148.32 10417.3 2664.72 -6172.86 19733.7 -5793.53 -3676.61 30185.2 23211.7
internal_weight=0 4512 1913 1152 711 2599 1354 349 3488 2240 494 761 217 1005 789 561 525 193 441 194 301 326 304 392 1451 151 1245 679 106 129
internal_count=8000 4512 1913 1152 711 2599 1354 349 3488 2240 494 761 217 1005 789 561 525 193 441 194 301 326 304 392 1451 151 1245 679 106 129
is_linear=0
shrinkage=0.05


Tree=21
num_leaves=31
num_cat=0
split_feature=1 3 0 2 3 1 3 2 2 0 0 2 2 0 0 1 3 0 2 0 1 2 0 0 0 2 2 1 1 2
split_gain=7.52562e+13 7.00165e+13 3.51299e+13 2.87037e+13 2.22694e+13 1.9033e+13 1.57991e+13 1.33828e+13 1.20828e+13 9.01454e+12 7.41098e+12 7.38778e+12 6.84651e+12 6.55122e+12 6.49795e+12 5.53996e+12 5.57722e+12 5.85768e+12 5.2816e+12 5.258e+12 3.9915e+12 3.88467e+12 3.71584e+12 3.61818e+12 3.55192e+12 3.1298e+12 2.63471e+12 2.5709e+12 2.46808e+12 2.39485e+12
threshold=6.542299574716794 0.38278405459676296 527.98782505067823 387.14105143904288 0.31758353337530071 3.2374178818551824 0.70627644880525298 425.30576935543689 483.846826154251 836.00847576264584 802.21273743212294 437.23091238803181 370.24858631037949 742.513929377502 722.6380394113711 1.6895855263323185 0.7891177335333307 557.32262516311528 175.61516566560084 615.9395272415469 8.1900642410944915 239.64777348938614 833.24655404323914 615.9395272415469 338.0019308268665 192.14083311251713 223.74390568211081 8.8865790462665721 0.75151206427274864 269.92526357369496
decision_type=2 2 2 2 2 2 2 2 2 2 2 2 2 2 2 2 2 2 2 2 2 2 2 2 2 2 2 2 2 2
left_child=4 2 11 18 5 23 7 19 13 24 27 -2 -6 26 -10 -14 17 -17 -4 -3 -12 -15 -20 -1 -9 -21 -7 -5 -25 -8
right_child=1 6 3 10 12 8 29 9 14 -11 20 -13 15 21 -16 16 -18 -19 22 25 -22 -23 -24 28 -26 -27 -28 -29 -30 -31
leaf_value=-7125.3240234237855 1879.0328667340962 -4341.9214575777623 3747.5825019531253 25591.154197140961 -7635.857190743769 -6121.3509887989831 -8101.8469536955008 -1747.4290629725303 10130.496594335938 28462.910536317569 38737.834166666667 15912.965417567044 -8111.3791876571486 1396.6876705932618 28521.43487079327 -3861.2329069786465 -6742.9209269061312 4463.6465095717331 14008.935469098775 -2587.3134808207669 57568.405454009437 15173.049546448614 27166.880140984198 -7936.226089952258 11918.260403741575 8890.2799811999012 2290.5585976086636 39623.968656250006 1432.8503045162308 -2383.9820825630836
leaf_weight=445 280 283 75 94 1974 136 291 62 125 74 60 141 435 80 78 388 361 464 140 86 53 142 87 90 204 192 295 50 321 494
leaf_count=445 280 283 75 94 1974 136 291 62 125 74 60 141 435 80 78 388 361 464 140 86 53 142 87 90 204 192 295 50 321 494
internal_value=0 6859.5 17487.6 25703 -3428.47 1270.69 681.836 5199.67 6542.64 13027.2 37985.1 6579.23 -5649.6 3230.5 17197 -3270.43 -1534.39 672.504 15251.1 455.724 47569.9 10208.6 19051.8 -4001.27 8733.02 5339.66 -363.779 30463.7 -618.772 -4503.6
internal_weight=0 2666 980 559 5334 1712 1686 901 856 340 257 421 3622 653 203 1648 1213 852 302 561 113 222 227 856 266 278 431 144 411 785
internal_count=8000 2666 980 559 5334 1712 1686 901 856 340 257 421 3622 653 203 1648 1213 852 302 561 113 222 227 856 266 278 431 144 411 785
is_linear=0
shrinkage=0.05


Tree=22
num_leaves=31
num_cat=0
split_feature=1 3 0 3 2 1 3 2 2 2 0 0 0 2 3 2 1 0 1 0 3 2 0 0 0 0 3 0 2 2
split_gain=6.83509e+13 5.76858e+13 2.78863e+13 2.40912e+13 2.3079e+13 1.8078e+13 1.41243e+13 1.25881e+13 1.02767e+13 1.00566e+13 9.32256e+12 8.97139e+12 8.66222e+12 8.58516e+12 7.34043e+12 5.44951e+12 4.81892e+12 4.23401e+12 4.04227e+12 3.82698e+12 3.85488e+12 3.76197e+12 3.57324e+12 3.5011e+12 3.49292e+12 3.49019e+12 3.22887e+12 3.43001e+12 2.83248e+12 2.79424e+12
threshold=7.0878905306059812 0.37456365173916556 527.98782505067823 0.22842061728164004 477.33001558712294 3.2374178818551824 0.6469982577198794 392.33277884660254 279.65129481510149 307.05178079671595 786.28439543471302 480.09579608321911 836.00847576264584 273.72963807806286 0.6228776200970747 265.03660989859333 3.9167624268196568 879.97003279792591 2.5890212620269217 384.49726394548662 0.76250599222438009 209.28390649135432 355.96213858529762 292.19339616427106 830.03171840799644 726.97116058132622 0.86434369170460579 575.37080098975059 543.53895058791534 451.18230458555252
decision_type=2 2 2 2 2 2 2 2 2 2 2 2 2 2 2 2 2 2 2 2 2 2 2 2 2 2 2 2 2 2
left_child=3 2 15 5 13 -1 8 21 -3 -5 18 -9 22 -4 16 -2 -12 -6 -11 -20 -21 -7 -10 -17 -13 -15 27 -8 -14 -29
right_child=1 6 4 9 17 7 26 11 12 10 14 24 28 25 -16 23 -18 -19 19 20 -22 -23 -24 -25 -26 -27 -28 29 -30 -31
leaf_value=-3266.4365511047881 -1477.9822286054123 -1939.6240765923394 10007.969688114505 -7532.8310250260038 38793.692169943817 -3150.7836632349408 -4816.145195483422 3983.2511547313015 -1739.0793637230283 -7544.4043959359569 2044.5536748038398 17759.69911010742 19602.547256846909 18348.437727864584 -2996.5272926620291 3323.4407865547837 14051.037843674882 59762.51889204546 -6771.5161090461588 1612.5405161604449 -5805.0707234067213 6647.5542163800992 10211.15673579002 16285.270008829197 31936.493849206352 31397.303702731093 -7340.7451787928803 -25.550660848093557 40426.205156250006 11389.266122597142
leaf_weight=622 121 225 147 1843 89 166 258 102 84 680 180 140 89 90 316 81 156 33 392 550 257 239 245 146 63 119 289 182 20 76
leaf_count=622 121 225 147 1843 89 166 258 102 84 680 180 140 89 90 316 81 156 33 392 550 257 239 245 146 63 119 289 182 20 76
internal_value=0 7288.97 17859.1 -2930.41 25697.9 2956.95 1341.47 8408.99 6745.68 -4723.27 -2677.42 16080.8 11207.3 19266.3 2474.05 7091.99 7618.99 44465.6 -4464.95 -2718.47 -749.698 2631.45 7160.03 11660.1 22159.4 25778.2 -3109.45 -739.596 23423.4 3336.95
internal_weight=0 2294 826 5706 478 1332 1468 710 663 4374 2531 305 438 356 652 348 336 122 1879 1199 807 405 329 227 203 209 805 516 109 258
internal_count=8000 2294 826 5706 478 1332 1468 710 663 4374 2531 305 438 356 652 348 336 122 1879 1199 807 405 329 227 203 209 805 516 109 258
is_linear=0
shrinkage=0.05


Tree=23
num_leaves=31
num_cat=0
split_feature=1 3 2 0 2 0 3 3 1 2 0 0 1 0 2 3 1 0 2 2 0 2 0 3 0 2 0 1 3 2
split_gain=6.22451e+13 6.50171e+13 3.43928e+13 2.24537e+13 1.62387e+13 1.26494e+13 1.15792e+13 1.1373e+13 9.99823e+12 7.82543e+12 7.70381e+12 6.77447e+12 5.88853e+12 5.51383e+12 4.92215e+12 4.55972e+12 3.97763e+12 4.25837e+12 3.76829e+12 3.7398e+12 3.66333e+12 3.65881e+12 3.65177e+12 3.31555e+12 3.28344e+12 3.14449e+12 3.11773e+12 3.09776e+12 2.91747e+12 2.84769e+12
threshold=5.4115239458969313 0.3541105559818471 416.26727023994351 670.1660053845452 459.69096346168175 754.67264698491078 0.31299375724245654 0.6228776200970747 2.3717512713750386 465.48931680923607 847.42582545600487 757.17598962682689 9.0032607037750179 359.04294495540017 167.77197980957064 0.74040210663196815 1.5749801133859898 776.87274722127233 189.06683392309063 192.14083311251713 675.16401512996265 177.75129895942919 384.49726394548662 0.80042914889267902 322.14484250539834 215.8888899574944 420.96986949876606 8.3926206008955972 0.74040210663196815 528.16244555089474
decision_type=2 2 2 2 2 2 2 2 2 2 2 2 2 2 2 2 2 2 2 2 2 2 2 2 2 2 2 2 2 2
left_child=6 2 5 13 11 18 8 10 -1 21 26 25 29 -4 -7 19 -8 -18 -2 -13 -11 -10 -23 -19 -20 -3 -6 -16 -27 -5
right_child=1 4 3 12 7 14 16 -9 9 20 -12 15 -14 -15 27 -17 17 23 24 -21 -22 22 -24 -25 -26 28 -28 -29 -30 -31
leaf_value=-4922.7900936078422 -2821.2343590025689 -8545.0490394905828 6725.8410647074388 29359.622256944447 1532.6433643196203 3148.5533927917481 -8506.2770956632539 884.79157657086694 -7310.6300705973308 5921.8475708007818 29191.907470703125 -2306.5505475444179 57348.063975694451 21683.522578607604 16880.240853131403 -3482.8813018220299 -5879.249747297772 1774.3950184242015 -2029.8416674527257 9702.682657801548 19032.405654972157 -5980.409908903488 4882.640591219455 -6499.6026723688301 9019.2094964706685 -594.83505941834107 13660.06449528096 30756.547805989587 -6910.3140574277686 44242.066531249999
leaf_weight=632 157 365 96 90 79 46 894 391 120 123 64 93 36 172 122 211 1555 388 88 214 94 99 354 176 285 495 161 60 290 50
leaf_count=632 157 365 96 90 79 46 894 391 120 123 64 93 36 172 122 211 1555 388 88 214 94 99 354 176 285 495 161 60 290 50
internal_value=0 4919.2 14386.7 25437.5 103.337 7913.63 -3954.22 6524.58 -235.339 3514.62 13778.4 -2572.18 39312.5 16325.5 17761.5 2175.63 -5709.36 -4529.35 3677.2 6064.71 11601.1 452.214 2508.6 -807.562 6412.46 -4710.76 9668.12 21454.8 -2927.94 34674.8
internal_weight=0 3565 1202 444 2363 758 4435 695 1422 790 304 1668 176 268 228 518 3013 2119 530 307 217 573 453 564 373 1150 240 182 785 140
internal_count=8000 3565 1202 444 2363 758 4435 695 1422 790 304 1668 176 268 228 518 3013 2119 530 307 217 573 453 564 373 1150 240 182 785 140
is_linear=0
shrinkage=0.05


Tree=24
num_leaves=31
num_cat=0
split_feature=1 3 2 0 3 0 1 2 3 2 3 2 3 2 1 0 0 3 0 2 2 2 2 0 1 3 3 0 2 1
split_gain=5.70112e+13 4.75685e+13 2.78208e+13 2.58515e+13 2.04975e+13 2.00303e+13 1.67371e+13 1.33432e+13 1.08883e+13 5.97547e+12 5.30862e+12 5.00233e+12 4.62644e+12 4.5499e+12 4.25898e+12 4.38365e+12 4.08308e+12 3.67306e+12 3.66339e+12 3.62899e+12 3.41485e+12 3.21548e+12 2.91987e+12 2.90899e+12 2.6651e+12 2.5205e+12 2.50496e+12 2.4652e+12 2.27814e+12 2.24531e+12
threshold=7.1600077885911499 0.56397798818228673 273.72963807806286 513.60441764617246 0.57814411078345052 597.14799177310613 3.7187275185253355 392.33277884660254 0.24910243989468181 565.04531009528694 0.21156845617483733 296.83926823220412 0.82168877249750671 483.846826154251 2.6955353956920969 310.51077942091285 480.09579608321911 0.18797295329902894 443.90442944662544 394.45358344025971 185.46554041208515 225.6583341612077 129.72188594341966 903.76158035504295 0.75151206427274864 0.86434369170460579 0.20471102450951734 487.23694642797136 489.72954630140367 1.9603901250962514
decision_type=2 2 2 2 2 2 2 2 2 2 2 2 2 2 2 2 2 2 2 2 2 2 2 2 2 2 2 2 2 2
left_child=4 2 18 17 5 11 19 20 9 23 -9 -1 16 -10 -13 -16 -3 -4 -2 -7 -8 -18 -20 28 -21 27 -17 -6 -5 -29
right_child=1 12 3 8 25 6 7 10 13 -11 -12 14 -14 -15 15 26 21 -19 22 24 -22 -23 -24 -25 -26 -27 -28 29 -30 -31
leaf_value=-7402.3776192854675 -4594.0027820110327 -4173.477068452381 15061.462280734082 23832.537358268804 -7509.9834157389596 -3879.3714180796569 -3355.1125641286812 23971.437048157648 13985.73356499566 57690.193002717395 11379.573476981263 -6040.475962618123 -5605.1837229733464 26684.204408001082 -5529.5184116185637 8649.7879457151739 -3464.8059832747263 3764.4462089811054 -4308.9251867886251 -6210.3969600453102 6014.9804076191922 7295.1166201849064 8326.3883767022035 42177.718643465916 4784.0455385293344 -8486.7205866105542 705.5617923093954 -7238.0085550041331 37031.534680706529 -2070.5479049776191
leaf_weight=654 128 210 106 113 623 503 137 134 180 23 223 368 401 116 193 154 93 224 58 68 335 274 216 44 291 769 279 293 46 744
leaf_count=654 128 210 106 113 623 503 137 134 180 23 223 368 401 116 193 154 93 224 58 68 335 274 216 44 291 769 279 293 46 744
internal_value=0 6785.33 13231.5 18347.2 -2625.67 -83.443 3739.63 8812.05 25272.1 33536.4 16105.9 -4006.27 -1480.03 18962.2 -1771.8 737.575 1386.84 7393.18 2389.43 -1138.6 3295.27 4568.49 5651.76 30799.7 2701.53 -6120.31 3530.99 -5024.06 27651.1 -3530.59
internal_weight=0 2232 1254 852 5768 3339 1691 829 522 226 357 1648 978 296 994 626 577 330 402 862 472 367 274 203 359 2429 433 1660 159 1037
internal_count=8000 2232 1254 852 5768 3339 1691 829 522 226 357 1648 978 296 994 626 577 330 402 862 472 367 274 203 359 2429 433 1660 159 1037
is_linear=0
shrinkage=0.05


Tree=25
num_leaves=31
num_cat=0
split_feature=1 3 2 0 2 0 3 0 3 0 1 0 3 1 1 2 2 0 0 2 2 1 3 3 1 3 2 1 2 2
split_gain=5.15986e+13 5.79713e+13 2.67279e+13 2.0943e+13 1.9652e+13 1.84864e+13 1.15609e+13 9.02166e+12 7.10012e+12 5.81236e+12 5.80561e+12 5.67039e+12 5.42698e+12 5.14269e+12 4.69044e+12 4.6059e+12 4.11266e+12 3.47165e+12 3.1989e+12 3.08471e+12 3.04589e+12 3.00248e+12 2.78867e+12 2.69782e+12 2.48016e+12 2.41547e+12 2.46531e+12 2.34575e+12 2.07047e+12 1.92277e+12
threshold=4.2468253543673731 0.26447683398546645 265.03660989859333 483.34567477976947 307.05178079671595 766.74129115645701 0.6201295672220607 879.97003279792591 0.66124496557477064 627.99244303240846 8.3528618243613355 345.8277434861032 0.66509116099921728 8.8159951205566411 1.2205865962860942 223.74390568211081 509.16024569107736 432.0271817244921 432.0271817244921 499.07979336386285 511.71556367260661 7.8554159823989229 0.92988860247988725 0.089345004172403819 7.5633486039093452 0.75061592263982135 144.24923047168249 7.8554159823989229 520.07335562945502 520.07335562945502
decision_type=2 2 2 2 2 2 2 2 2 2 2 2 2 2 2 2 2 2 2 2 2 2 2 2 2 2 2 2 2 2
left_child=9 2 17 24 18 8 13 10 11 -1 20 -6 14 19 -11 -16 -9 -2 -3 -7 -5 -13 -8 -12 -4 26 -20 -19 -17 -15
right_child=1 4 3 7 5 6 22 16 -10 12 23 21 -14 29 15 28 -18 27 25 -21 -22 -23 -24 -25 -26 -27 -28 -29 -30 -31
leaf_value=-6418.0265006580576 -4191.056526823967 -8418.722679336508 3096.6710087206538 13876.601504205197 -3430.9270213324908 9531.4635516889957 5927.5324992977494 31165.018369391026 -3700.999593425247 -5544.105921399916 41745.585684121623 3234.3874513653586 -6425.2429841694084 24102.989813112745 -4619.0938444664735 2494.7203240615031 52451.570849609379 2665.9451828240112 -6670.0487216525617 21337.847824928976 25668.309241365132 10797.857438757295 -6482.1288460179385 25246.718302083333 12732.881409145388 -6400.4290541108358 629.63989967957832 12297.793925963058 9611.8894880182615 42395.071875000001
leaf_weight=1914 124 377 149 196 217 149 220 78 636 296 37 347 532 51 199 411 32 193 153 88 76 211 57 75 121 337 474 94 136 20
leaf_count=1914 124 377 149 196 217 149 220 78 636 296 37 347 532 51 199 411 32 193 153 88 76 211 57 75 121 337 474 94 136 20
internal_value=0 3530.59 13081.6 18612.7 167.549 3312.62 10785.7 24732.8 214.269 -4567.1 21116.4 3427.32 -2316.35 17451.5 -218.53 1894.57 37357.5 2800.07 -4513.7 13915.3 17171.3 6094.41 3373.92 30697.2 7415.12 -2986.53 -1151.62 5820.63 4264.25 29255.7
internal_weight=0 4512 1175 764 3337 1996 585 494 1411 3488 384 775 1574 308 1042 746 110 411 1341 237 272 558 277 112 270 964 627 287 547 71
internal_count=8000 4512 1175 764 3337 1996 585 494 1411 3488 384 775 1574 308 1042 746 110 411 1341 237 272 558 277 112 270 964 627 287 547 71
is_linear=0
shrinkage=0.05


Tree=26
num_leaves=31
num_cat=0
split_feature=1 3 2 0 3 1 2 2 3 0 2 3 0 0 3 2 1 0 0 0 0 0 2 1 2 0 0 3 3 3
split_gain=4.73984e+13 3.94242e+13 2.19241e+13 1.88446e+13 1.74964e+13 1.25024e+13 9.86956e+12 8.04784e+12 6.50146e+12 6.49576e+12 6.22208e+12 5.85271e+12 5.48513e+12 4.24584e+12 4.20338e+12 3.84048e+12 3.4354e+12 3.32037e+12 3.2311e+12 2.9988e+12 2.93897e+12 2.92252e+12 2.8395e+12 2.77952e+12 2.70094e+12 2.69672e+12 2.67513e+12 2.52455e+12 2.45466e+12 2.23036e+12
threshold=7.1600077885911499 0.48016759017324911 327.57691459422557 575.37080098975059 0.22842061728164004 2.6568511568433002 395.57748930006704 429.66091375838124 0.77018083947990645 808.53775727339632 468.80078144997867 0.097614182229753363 706.07179363527325 463.18796745702588 0.77339839540327782 513.93667172635116 3.4387131442954435 766.74129115645701 382.13715615489565 275.29097606556724 328.97059422187573 466.50529402715489 135.787845725567 3.569718077993564 227.65605573224715 566.332332025244 912.4944895509592 0.18797295329902894 0.19246878846367341 0.73036302425189248
decision_type=2 2 2 2 2 2 2 2 2 2 2 2 2 2 2 2 2 2 2 2 2 2 2 2 2 2 2 2 2 2
left_child=4 2 13 19 5 -1 18 21 10 20 25 -5 -9 -2 16 -13 -14 -12 -7 -4 -8 -6 -15 -23 -20 -3 -17 -21 -24 -25
right_child=1 8 3 11 7 6 9 12 -10 -11 17 15 14 22 -16 26 -18 -19 24 27 -22 23 28 29 -26 -27 -28 -29 -30 -31
leaf_value=-3514.3872134474823 -2230.312534280019 -3787.6185958399919 402.69572219848635 40528.388179347829 -7610.2105730827989 -5854.5562053176591 -1453.497893348107 -3220.8422223940834 -4296.4508459316467 25630.048407451923 6777.5864992742681 20228.935353697063 905.97987417447371 -1961.1183101029831 -3539.4483266864709 27774.501374421299 10458.536022524098 21491.155303485579 -664.26810713479688 19240.784545898438 11836.379877325206 -6189.5596859607422 16631.558957248264 -567.48286270541178 7750.6481572801822 3656.7059859665455 48805.833928571432 8221.8901281642156 6216.3790821884622 -5619.7661336382698
leaf_weight=516 146 231 64 69 1014 106 52 954 508 78 146 183 177 55 167 54 201 52 172 88 208 958 99 611 214 257 21 127 132 340
leaf_count=516 146 231 64 69 1014 106 52 954 508 78 146 183 177 55 167 54 201 52 172 88 208 958 99 611 214 257 21 127 132 340
internal_value=0 6186.89 13313.9 19449.2 -2394.1 2597.26 6396.78 -3913.4 -8.95794 12974.9 3166.04 27593.6 -934.788 4707.41 3066.86 24134.3 5985.51 10641.8 1877.65 9903.73 9178.4 -5440.92 8249.04 -4288.66 4001 132.856 33663.3 12731.9 10680 -2373.77
internal_weight=0 2232 1038 606 5768 1346 830 4422 1194 338 686 327 1499 432 545 258 378 198 492 279 260 2923 286 1909 386 488 75 215 231 951
internal_count=8000 2232 1038 606 5768 1346 830 4422 1194 338 686 327 1499 432 545 258 378 198 492 279 260 2923 286 1909 386 488 75 215 231 951
is_linear=0
shrinkage=0.05


Tree=27
num_leaves=31
num_cat=0
split_feature=1 3 2 0 2 0 0 3 2 1 3 0 0 1 3 2 2 0 0 0 1 2 3 3 0 3 3 1 0 2
split_gain=4.30824e+13 4.3533e+13 2.39065e+13 1.51447e+13 1.09507e+13 1.0059e+13 9.25128e+12 9.14601e+12 7.14235e+12 7.15697e+12 6.78016e+12 5.98793e+12 4.76477e+12 4.3991e+12 4.09798e+12 3.23844e+12 3.21897e+12 3.14374e+12 2.74011e+12 2.7394e+12 2.7235e+12 2.63601e+12 2.60445e+12 2.57751e+12 2.53102e+12 2.30646e+12 2.26927e+12 2.07077e+12 1.9794e+12 1.94903e+12
threshold=5.8384127202573159 0.37456365173916556 416.26727023994351 649.00785800835968 468.80078144997867 618.5238862983357 738.28625708219045 0.58086437788388645 245.38536743101841 1.5412876733930687 0.76250599222438009 863.0387775092405 816.03812417666848 9.0032607037750179 0.17346447096279682 167.77197980957064 315.37587214722106 322.14484250539834 420.96986949876606 283.74559816950699 1.7674012729629232 167.77197980957064 0.20168649633885363 0.61061897256715303 331.60714792063919 0.77018083947990645 0.12454378707245671 7.826033160024231 859.27280020504747 499.07979336386285
decision_type=2 2 2 2 2 2 2 2 2 2 2 2 2 2 2 2 2 2 2 2 2 2 2 2 2 2 2 2 2 2
left_child=5 2 6 17 12 16 19 8 -7 -10 11 18 24 26 -11 -8 -1 -4 -6 -2 -18 -21 -22 -14 -3 -26 -5 -17 -16 -19
right_child=1 4 3 13 10 7 15 -9 9 14 -12 -13 23 -15 28 27 20 29 -20 21 22 -23 -24 -25 25 -27 -28 -29 -30 -31
leaf_value=-7140.0378051093794 -5445.4683556981836 -8091.6383410027065 5152.3069836738787 37362.848541666666 594.35139878887992 -3394.1424517453579 3060.17972764757 -4456.7821108880371 -2855.6168253332621 12922.990924287642 -1243.5884740857111 23346.003600543481 8173.1781914460753 46176.971235795456 2023.8821745904502 12489.219727684986 -6811.209906583219 11328.022615885418 10588.67376994987 -2816.4684782636928 3234.8511043097387 6734.8884103224063 -3338.3149439199146 -583.54177380525152 -551.70760431357314 -5960.3957496668254 23777.686746939435 23193.358891913231 8630.4533416581289 22187.60416525136
leaf_weight=1126 83 257 78 45 107 418 45 903 246 209 207 69 141 44 298 87 444 75 191 94 186 312 794 208 564 303 97 94 183 92
leaf_count=1126 83 257 78 45 107 418 45 903 246 209 207 69 141 44 298 87 444 75 191 94 186 312 794 208 564 303 97 94 183 92
internal_value=0 4502.07 12304.8 21606.2 133.762 -2990.45 6697.91 -559.288 2040 4466.79 5992.13 10073.3 -2149.13 32363.2 7077.38 15063.9 -5142.27 13439.8 7000.11 2831.42 -3562.58 4523.49 -2090.75 2954.27 -3733.73 -2441.94 28082.8 18048.3 4537.4 17310.5
internal_weight=0 3193 1146 431 2047 4807 715 2257 1354 936 574 367 1473 186 690 226 2550 245 298 489 1424 406 980 349 1124 867 142 181 481 167
internal_count=8000 3193 1146 431 2047 4807 715 2257 1354 936 574 367 1473 186 690 226 2550 245 298 489 1424 406 980 349 1124 867 142 181 481 167
is_linear=0
shrinkage=0.05


Tree=28
num_leaves=31
num_cat=0
split_feature=1 3 3 2 1 2 2 0 0 0 3 2 3 0 1 0 0 3 0 2 1 2 1 3 2 2 3 0 0 1
split_gain=3.93454e+13 3.19154e+13 1.56436e+13 1.4254e+13 1.30674e+13 1.25019e+13 1.12809e+13 1.10595e+13 1.09825e+13 9.2648e+12 5.65255e+12 4.83596e+12 4.78831e+12 3.9172e+12 3.31764e+12 3.05886e+12 2.97647e+12 2.74769e+12 2.81329e+12 2.57864e+12 2.56097e+12 2.49756e+12 2.47815e+12 2.45809e+12 2.36101e+12 2.32631e+12 2.30948e+12 1.93978e+12 1.93318e+12 1.68403e+12
threshold=7.2824506135755103 0.22842061728164004 0.50575113230224555 296.83926823220412 3.7897902096121792 307.05178079671595 398.55373413884411 480.09579608321911 776.87274722127233 666.4456977265321 0.57814411078345052 515.3227006435485 0.65544602186961298 789.04220738100787 0.68300287702068541 278.11075725829738 423.0363691264277 0.86052456102650876 487.23694642797136 273.72963807806286 2.1311786375927655 177.75129895942919 2.2276143850907979 0.1517064893951168 521.93016241672046 543.53895058791534 0.14802434143725193 802.21273743212294 609.72166460081496 8.7116829696425366
decision_type=2 2 2 2 2 2 2 2 2 2 2 2 2 2 2 2 2 2 2 2 2 2 2 2 2 2 2 2 2 2
left_child=2 6 3 21 14 27 13 -6 12 -8 24 23 15 -2 -5 -7 -16 18 -4 -20 -21 -1 -23 -9 29 -11 -13 -3 -24 -10
right_child=1 5 17 4 7 8 9 11 10 25 -12 26 -14 -15 16 -17 -18 -19 19 20 -22 22 28 -25 -26 -27 -28 -29 -30 -31
leaf_value=-6590.879250068665 6606.8486508116439 -4437.3902244521068 -6143.6263132848044 -7549.9330279737906 -114.64427019626606 -4362.0317331414471 17327.809422302245 14771.824644079286 11688.747062036548 33904.061491935485 6900.0735748061561 27978.473648437503 -1921.3191963563779 19794.966341969935 -4583.7123283494711 8151.4180017588778 2392.9424602611648 -7212.2962628377536 -5353.1638327523942 -5063.8336486816406 1062.3982680890383 -6210.9666736319596 -3288.2686181979716 6229.4616302820759 32231.769791666669 53158.774553571435 15106.807646059784 1722.8541301661146 3047.3373603732434 23908.452025462964
leaf_weight=480 196 489 783 155 297 57 128 121 59 62 133 50 311 79 211 341 555 809 460 239 596 229 225 277 36 21 115 173 259 54
leaf_count=480 196 489 783 155 297 57 128 121 59 62 133 50 311 79 211 341 555 809 460 239 596 229 225 277 36 21 115 173 259 54
internal_value=0 5804.34 -2118.32 426.784 3259.85 2492.67 17068.1 7691.99 6046.63 25764.7 14392.7 11810.2 2727.03 10395.4 -878.74 6359.29 471.175 -4740.12 -3777.66 -2347.12 -691.098 -3802.63 -1925.54 8826.51 21080.8 38775.7 19007.3 -2827.54 102.066 17528.3
internal_weight=0 2139 5861 2974 1781 1653 486 860 991 211 282 563 709 275 921 398 766 2887 2078 1295 835 1193 713 398 149 83 165 662 484 113
internal_count=8000 2139 5861 2974 1781 1653 486 860 991 211 282 563 709 275 921 398 766 2887 2078 1295 835 1193 713 398 149 83 165 662 484 113
is_linear=0
shrinkage=0.05


Tree=29
num_leaves=31
num_cat=0
split_feature=1 3 2 0 2 0 0 2 1 3 3 1 3 0 0 2 0 0 0 3 2 1 1 2 1 1 1 3 3 0
split_gain=3.60546e+13 3.95738e+13 1.96841e+13 1.2583e+13 1.19189e+13 1.01777e+13 7.36759e+12 6.65868e+12 6.74107e+12 6.59291e+12 5.44019e+12 4.37151e+12 4.28065e+12 3.86914e+12 3.79794e+12 3.56983e+12 3.17632e+12 3.15888e+12 3.09994e+12 2.59683e+12 2.68496e+12 2.3709e+12 2.31994e+12 2.24007e+12 1.92754e+12 1.87202e+12 1.85586e+12 1.81864e+12 1.72807e+12 1.6461e+12
threshold=5.0755386796944668 0.31758353337530071 416.26727023994351 666.4456977265321 370.24858631037949 830.03171840799644 711.74286872095456 238.48254734767497 2.0022052471039786 0.20471102450951734 0.74728510367388079 9.0032607037750179 0.75957181865608769 349.17744517595139 286.24479211823041 167.77197980957064 820.70931585767164 420.96986949876606 722.6380394113711 0.79658696763889547 171.6970616967721 7.826033160024231 8.927977704507164 263.13795865593744 8.4544509057334718 8.8865790462665721 0.68300287702068541 0.12823769551103539 0.83900501181403331 879.97003279792591
decision_type=2 2 2 2 2 2 2 2 2 2 2 2 2 2 2 2 2 2 2 2 2 2 2 2 2 2 2 2 2 2
left_child=7 2 6 14 17 12 23 -1 26 18 22 27 13 -6 -4 -8 28 -3 -10 20 -19 -17 -7 -2 -15 -16 -9 -5 -11 -22
right_child=1 4 3 11 5 10 15 8 9 16 -12 -13 -14 24 25 21 -18 19 -20 -21 29 -23 -24 -25 -26 -27 -28 -29 -30 -31
leaf_value=-6433.0777778939564 -559.5109017080631 -7090.1685938979645 1436.454345703125 33447.411993634261 -2883.7910576917457 14008.016491603101 2097.3892110533634 -7638.6261545741718 2381.0902343423959 -1803.5600561628905 2265.2483303070071 46652.324414062503 -3152.4107634928037 3860.141695631829 12996.613883463542 11597.711642279508 3038.4853459221977 -4838.3385752650674 11829.759202332429 -5600.6896878031284 347.50840242362318 22570.318940606176 27010.665009973403 6283.1222194566644 10649.342936523439 24034.650675612229 -3476.7139280109427 21816.362166432587 -6653.1252041903417 7080.5775850214523
leaf_weight=1166 265 363 59 54 167 127 59 405 234 897 88 32 348 345 147 121 294 210 138 298 405 83 47 218 150 52 791 89 231 117
leaf_count=1166 265 363 59 54 167 127 59 405 234 897 88 32 348 345 147 121 294 210 138 298 405 83 47 218 150 52 791 89 231 117
internal_value=0 3490.21 11117.6 19597.6 115.857 3615.08 6195.52 -3228.19 -1978.39 -39.9491 12396.4 29946.8 1337.15 3697.22 12577.7 12929.3 -1590.26 -3079.41 5886.24 -1665.91 -64.0473 16062.1 17520.2 2528.88 5917.48 15880.9 -4886.06 26208.5 -2796.69 1856.64
internal_weight=0 3844 1179 433 2665 1272 746 4156 2990 1794 262 175 1010 662 258 263 1422 1393 372 1030 732 204 174 483 495 199 1196 143 1128 522
internal_count=8000 3844 1179 433 2665 1272 746 4156 2990 1794 262 175 1010 662 258 263 1422 1393 372 1030 732 204 174 483 495 199 1196 143 1128 522
is_linear=0
shrinkage=0.05


Tree=30
num_leaves=31
num_cat=0
split_feature=1 3 3 2 0 2 1 0 0 3 2 0 0 1 2 3 2 2 2 1 3 0 0 2 3 1 3 0 2 2
split_gain=3.3177e+13 2.34436e+13 1.62862e+13 1.4182e+13 1.32316e+13 1.10377e+13 8.82285e+12 6.71223e+12 5.96945e+12 4.1585e+12 4.12631e+12 3.9476e+12 3.947e+12 3.87279e+12 3.4164e+12 3.27921e+12 3.02644e+12 2.99534e+12 2.4917e+12 2.40037e+12 2.34147e+12 2.31476e+12 2.09087e+12 1.95298e+12 1.9459e+12 1.81769e+12 1.7996e+12 1.79761e+12 1.67566e+12 1.66337e+12
threshold=7.826033160024231 0.48016759017324911 0.40386670304549671 451.18230458555252 519.25501929565246 329.72758227493108 3.8306666855821416 719.72710168968422 742.513929377502 0.80042914889267902 565.04531009528694 708.90362251721797 487.23694642797136 3.569718077993564 516.53076631926467 0.81686238988450477 473.39542351534163 529.93209760082016 251.14270716550985 2.9210033392854284 0.31299375724245654 310.51077942091285 322.14484250539834 157.67366676135805 0.20168649633885363 0.95664775227972687 0.069194391929097668 732.12268122250237 258.45155588705779 225.6583341612077
decision_type=2 2 2 2 2 2 2 2 2 2 2 2 2 2 2 2 2 2 2 2 2 2 2 2 2 2 2 2 2 2
left_child=2 4 3 8 17 24 25 21 19 12 20 28 -3 -10 29 16 -13 -2 -15 -1 -7 -8 -21 -24 -6 -5 -9 -27 -4 -14
right_child=1 9 11 6 5 10 7 26 13 -11 -12 15 14 18 -16 -17 -18 -19 -20 22 -22 -23 23 -25 -26 27 -28 -29 -30 -31
leaf_value=-5814.1692501928455 2582.3353336163423 -1746.3782761329044 -6841.5009511008193 -4135.2519861806741 14827.437247747108 26303.198516717661 -1855.0039605034724 31734.448125000003 -1293.5485707913913 -3528.610820932498 41837.230156250007 -1650.5611450195313 -2233.3727812025281 1636.8728167150903 16885.534337103545 -5252.2355103932896 4856.8021582155807 16392.899222465185 10783.246570129395 -6262.5299732044441 16358.761310720916 9856.0453722859911 -6221.3696660156256 1452.6991709349329 4653.1156574117731 879.46592081629717 17995.768977303342 9502.5451028103307 -4048.4593013087101 6578.6967152207671
leaf_weight=470 268 226 804 101 79 143 54 30 260 348 30 660 72 127 67 416 245 46 180 163 101 193 100 485 116 184 116 90 1617 209
leaf_count=470 268 226 804 101 79 143 54 30 260 348 30 660 72 127 67 416 245 46 180 163 101 193 100 485 116 184 116 90 1617 209
internal_value=0 6186.99 -1675.75 1403.25 12549.1 17867.5 7084.61 12319.6 -1041.17 783.989 24338.4 -3776.41 3398.6 3196.73 6739.87 -1577.88 111.101 4605.54 6999.57 -3013.98 22186.9 7295.73 -1254.51 140.893 8775.02 1598.37 20818.8 3711.86 -4976.01 4320.8
internal_weight=0 1705 6295 2553 783 469 768 393 1785 922 274 3742 574 567 348 1321 905 314 307 1218 244 247 748 585 195 375 146 274 2421 281
internal_count=8000 1705 6295 2553 783 469 768 393 1785 922 274 3742 574 567 348 1321 905 314 307 1218 244 247 748 585 195 375 146 274 2421 281
is_linear=0
shrinkage=0.05


Tree=31
num_leaves=31
num_cat=0
split_feature=1 3 2 2 0 0 0 3 0 2 1 2 1 3 1 3 0 2 0 0 3 3 1 2 3 2 0 3 1 0
split_gain=3.01206e+13 3.38729e+13 1.60566e+13 1.26975e+13 8.15477e+12 8.08151e+12 7.28103e+12 6.456e+12 5.34534e+12 5.25204e+12 4.16508e+12 4.17209e+12 3.80254e+12 3.05436e+12 3.03497e+12 3.02816e+12 2.77248e+12 2.76304e+12 2.57223e+12 2.27505e+12 2.19531e+12 2.18617e+12 2.08638e+12 2.07031e+12 2.04224e+12 1.94536e+12 1.91434e+12 1.97387e+12 1.48767e+12 1.45597e+12
threshold=4.2468253543673731 0.26447683398546645 459.69096346168175 459.69096346168175 510.66870703434142 773.89812022461183 450.68310071860236 0.59139471042076164 802.21273743212294 265.03660989859333 0.95664775227972687 453.10783677042866 8.8865790462665721 0.61061897256715303 8.927977704507164 0.70298237530457375 833.24655404323914 215.8888899574944 423.0363691264277 334.63639318895565 0.10170707628073501 0.72720625736065825 7.7123961620659296 220.22878400590142 0.91368483316493909 183.20987159820439 413.88491318462428 0.69579145741634907 8.7788788797591426 844.32490494169531
decision_type=2 2 2 2 2 2 2 2 2 2 2 2 2 2 2 2 2 2 2 2 2 2 2 2 2 2 2 2 2 2
left_child=10 2 6 8 -5 12 -2 14 17 -8 -1 25 20 23 29 18 -11 -3 -13 -19 -4 -21 -7 -10 -9 -12 -27 -28 -25 -6
right_child=1 3 5 4 7 22 9 24 13 16 11 15 -14 -15 -16 -17 -18 19 -20 21 -22 -23 -24 28 -26 26 27 -29 -30 -31
leaf_value=-6656.5279874114995 -366.75883005442643 -6154.3216796875004 18528.332062386777 -725.24309048469729 8879.8924020957948 25925.305128761574 4589.3961472663332 5607.2312632825005 -230.41389533509602 10933.429646799972 -6559.7999252858635 -2773.3603659114488 27142.819791666669 -1257.5342156785537 24798.345400943399 -4255.6271179330197 21380.904211956524 -5839.8693277413513 4738.6418243212574 1153.7130432732954 7369.2116112881022 -3967.1821027080828 41464.912717013889 6288.053336561049 -4534.4116852791076 -5769.2437397926542 -263.26153745003774 -5064.6816794330216 16339.48131377551 17441.657649739584
leaf_weight=800 273 563 69 391 160 54 276 249 94 205 481 161 48 310 53 233 92 280 390 581 122 325 36 148 62 409 707 307 49 72
leaf_count=800 273 563 69 391 160 54 276 249 94 205 481 161 48 310 53 233 92 280 390 581 122 325 36 148 62 409 707 307 49 72
internal_value=0 2697.49 9998.3 126.788 4885.91 19371 6353.36 8567.05 -1872.04 9555.1 -3489.42 -2546.83 14562.2 2195.96 14003.1 522.957 14169.7 -3269.91 2543.66 -1900.67 11400.5 -683.253 32141.1 5874.94 3585.42 -3810.85 -2881.66 -1716.95 8788.15 11537
internal_weight=0 4512 1175 3337 987 329 846 596 2350 573 3488 2688 239 601 285 784 297 1749 551 1186 191 906 90 291 311 1904 1423 1014 197 232
internal_count=8000 4512 1175 3337 987 329 846 596 2350 573 3488 2688 239 601 285 784 297 1749 551 1186 191 906 90 291 311 1904 1423 1014 197 232
is_linear=0
shrinkage=0.05


Tree=32
num_leaves=31
num_cat=0
split_feature=1 3 3 0 2 1 2 2 0 3 0 0 0 1 3 3 0 3 2 2 2 2 0 3 1 2 1 0 0 3
split_gain=2.80652e+13 1.9531e+13 1.37319e+13 1.23991e+13 1.01238e+13 8.69961e+12 7.28606e+12 6.37869e+12 4.8017e+12 4.44237e+12 4.0903e+12 4.08167e+12 3.5456e+12 3.48612e+12 3.26649e+12 2.56718e+12 2.85883e+12 2.46378e+12 2.4598e+12 2.15222e+12 1.95584e+12 1.91852e+12 1.80642e+12 1.93122e+12 1.80096e+12 1.8001e+12 1.71742e+12 1.61433e+12 1.60964e+12 1.60021e+12
threshold=7.826033160024231 0.56397798818228673 0.22842061728164004 466.50529402715489 361.29493478247508 3.2374178818551824 485.68304991526867 402.07544094012331 503.24453692053589 0.6228776200970747 783.16315751550007 903.76158035504295 506.76216519907035 3.5161481833281063 0.14467296722873782 0.90610224618080915 660.71396192071575 0.20168649633885363 245.38536743101841 163.93641887301237 542.08291391021328 528.16244555089474 466.50529402715489 0.77681142283334814 2.0022052471039786 529.93209760082016 0.60609508770860643 822.97371977929026 294.50257599109824 0.23619253933123927
decision_type=2 2 2 2 2 2 2 2 2 2 2 2 2 2 2 2 2 2 2 2 2 2 2 2 2 2 2 2 2 2
left_child=2 3 5 21 17 26 12 19 -9 13 28 14 -7 -10 -6 16 -3 -5 -14 -4 -15 -2 -21 24 -24 -18 -1 -28 -8 -13
right_child=1 15 7 4 11 6 10 8 9 -11 -12 29 18 20 -16 -17 25 -19 -20 22 -22 -23 23 -25 -26 -27 27 -29 -30 -31
leaf_value=-6978.0149477958685 1005.224951967512 -1650.8823275987243 -6817.7949041299398 14183.881185135187 26939.265613839289 -1471.9996235228982 -1914.1681986490887 -3801.395510178796 -52.944773741974224 -1842.6239447586777 26001.547164351854 40609.291629464286 1494.7174680503019 5055.860264537374 14249.029977649192 -5868.679033277107 3645.9121705921775 4567.9017149289457 9384.4633446365096 -5511.8909883033884 13061.477932326859 10996.438722386854 -4915.1156055292095 -5230.8204369592158 -141.77915285520419 15951.298270089288 -2000.0333294915536 4892.6088530094257 12214.092424955823 25249.896911337211
leaf_weight=128 280 351 653 102 70 239 24 709 261 552 54 28 166 244 184 165 197 192 244 783 111 58 265 465 777 35 385 109 126 43
leaf_count=128 280 351 653 102 70 239 24 709 261 552 54 28 166 244 184 165 197 192 244 783 111 58 265 465 777 35 385 109 126 43
internal_value=0 5690.42 -1541.25 10421.6 14627.1 2680.23 5959.25 -2833.09 -555.505 1414.82 14201.6 20708.8 3368.45 4333.82 17746.3 -362.636 1195.68 7904.06 6190.08 -4285.71 7559.03 2719.69 -3563.67 -2551.43 -1355.73 5502.33 -1816.57 -479.187 9953.57 31307.1
internal_weight=0 1705 6295 957 619 1475 853 4820 1877 1168 204 325 649 616 254 748 583 294 410 2943 355 338 2290 1507 1042 232 622 494 150 71
internal_count=8000 1705 6295 957 619 1475 853 4820 1877 1168 204 325 649 616 254 748 583 294 410 2943 355 338 2290 1507 1042 232 622 494 150 71
is_linear=0
shrinkage=0.05


Tree=33
num_leaves=31
num_cat=0
split_feature=1 3 0 2 2 0 2 0 3 1 2 3 2 2 0 2 2 1 0 3 3 0 3 1 1 3 2 2 3 0
split_gain=2.53763e+13 2.63613e+13 1.50156e+13 9.1548e+12 7.59028e+12 7.13202e+12 6.86219e+12 5.64791e+12 6.28132e+12 5.44991e+12 5.51317e+12 4.92625e+12 2.91822e+12 2.89585e+12 2.51114e+12 2.50203e+12 2.37514e+12 2.29636e+12 2.21362e+12 1.99457e+12 1.69569e+12 1.6537e+12 1.58496e+12 1.47417e+12 1.39862e+12 1.36815e+12 1.33508e+12 1.29805e+12 1.1948e+12 1.1846e+12
threshold=5.5064834192622722 0.3541105559818471 734.8003090140129 321.34643722888927 258.45155588705779 657.41703464831232 493.40388673679348 413.88491318462428 0.61061897256715303 1.6571514039401529 461.90624679869558 0.76250599222438009 509.16024569107736 542.08291391021328 289.45484443404399 265.03660989859333 185.46554041208515 8.3926206008955972 289.45484443404399 0.78416173547008083 0.13720479543544217 916.0167866094074 0.10170707628073501 8.2624509165415585 8.4209366920150526 0.14467296722873782 506.82829114876068 152.54594662612195 0.94665778599285233 870.56673301603371
decision_type=2 2 2 2 2 2 2 2 2 2 2 2 2 2 2 2 2 2 2 2 2 2 2 2 2 2 2 2 2 2
left_child=7 2 6 27 -3 18 14 -1 9 -9 16 13 23 24 -2 -16 -11 -8 -6 26 -12 -14 -17 -5 -7 -18 -20 -4 -13 -22
right_child=1 4 3 12 5 11 17 8 -10 10 20 28 21 -15 15 22 25 -19 19 -21 29 -23 -24 -25 -26 -27 -28 -29 -30 -31
leaf_value=-5330.2830040405534 -3759.8667651795508 -4074.4550035812667 348.04741683959963 16017.33929729056 -5817.6489199218749 4773.444786746003 9984.9526835870311 -3616.1111511281083 -4130.1864585528037 -4194.5026746884423 13446.174902343751 2207.3381365884566 26821.454859375001 17582.692712983633 674.12559483954249 13578.808169367285 5086.7287661518549 22164.873532714846 521.1473678397067 -3417.8116116940723 3524.6207431309904 42788.451888020834 5232.3046903779996 26100.583726165256 11441.360818579889 269.14930849222037 6127.1416457018313 10793.296801126415 -6232.1870279584618 10625.254247970581
leaf_weight=1247 114 738 40 94 175 215 109 603 1270 241 84 167 50 84 235 81 197 60 358 231 221 24 191 59 124 585 151 116 56 80
leaf_count=1247 114 738 40 94 175 215 109 603 1270 241 84 167 50 84 235 81 197 60 358 231 221 24 191 59 124 585 151 116 56 80
internal_value=0 3215.9 9315.26 17440 103.874 2079.28 5376.33 -2465.9 -1377.25 361.307 2064.7 6101.53 23848.3 9271.79 2945.33 4453 145.32 14309.2 -760.474 435.479 7164.78 31999.9 7717.84 19905.6 7212.45 1482.79 2184.22 8115.03 87.9955 5411.83
internal_weight=0 3472 1173 383 2299 1561 790 4528 3281 2011 1408 646 227 423 621 507 1023 169 915 740 385 74 272 153 339 782 509 156 223 301
internal_count=8000 3472 1173 383 2299 1561 790 4528 3281 2011 1408 646 227 423 621 507 1023 169 915 740 385 74 272 153 339 782 509 156 223 301
is_linear=0
shrinkage=0.05


Tree=34
num_leaves=31
num_cat=0
split_feature=1 3 3 1 0 0 2 2 0 2 2 1 0 2 3 3 3 2 0 0 2 1 0 2 3 0 2 2 0 0
split_gain=2.35303e+13 1.64327e+13 1.13989e+13 7.185e+12 6.5775e+12 6.36687e+12 6.06819e+12 5.58755e+12 4.87705e+12 4.8555e+12 4.34982e+12 3.69711e+12 3.29516e+12 2.83057e+12 2.48821e+12 2.48685e+12 2.46491e+12 2.29163e+12 2.2619e+12 2.13272e+12 2.06846e+12 2.30928e+12 1.90539e+12 1.8699e+12 1.69672e+12 1.67087e+12 1.39345e+12 1.37143e+12 1.36654e+12 1.30985e+12
threshold=7.826033160024231 0.25983735299198668 0.22044738046108234 3.6131488440244119 552.24754601941925 766.74129115645701 303.06414538311731 453.10783677042866 826.65243353144763 303.06414538311731 372.12029275912874 3.569718077993564 500.73551228634898 258.45155588705779 0.59139471042076164 0.76250599222438009 0.73260008673151578 543.53895058791534 397.37262402918356 447.16549227255592 187.43770789524217 3.3183747343169059 316.38860306229822 442.86093816376462 0.71827010731938568 519.25501929565246 521.93016241672046 227.65605573224715 856.44847235110876 844.32490494169531
decision_type=2 2 2 2 2 2 2 2 2 2 2 2 2 2 2 2 2 2 2 2 2 2 2 2 2 2 2 2 2 2
left_child=2 4 3 25 23 13 -5 18 19 -6 -7 -9 -13 -3 29 26 22 -11 -4 -8 -20 -22 -15 -2 28 -1 -12 -27 -23 -14
right_child=1 5 7 6 9 10 8 11 -10 17 15 12 14 16 -16 -17 -18 -19 20 -21 21 24 -24 -25 -26 27 -28 -29 -30 -31
leaf_value=-4438.8422945846387 3956.5732968128905 -4283.2240355068579 -5814.9651536290085 556.20353517742944 10388.365141793583 2797.4281328238694 1961.8369155772414 -2594.2099290511192 19395.399212831438 22410.415714089915 13499.117197027439 -1833.3884631516278 6050.530835528707 -1670.5252642288951 1187.9456159419065 4220.7818483838846 -2358.8355942451203 39409.435286458334 -5292.5146710866902 9996.250722723742 -4052.0124240609107 -230.24741144834445 6208.1103048432306 14250.451139068604 -3266.0403598929743 -3867.422679887969 24612.077470930235 2574.853847001239 5149.558533813477 13896.928059050326
leaf_weight=257 142 266 893 317 89 204 137 680 99 114 82 276 172 103 221 51 222 24 664 208 817 554 301 64 370 116 43 287 150 77
leaf_count=257 142 266 893 317 89 204 137 680 99 114 82 276 172 103 221 51 222 24 664 208 817 554 301 64 370 116 43 287 150 77
internal_value=0 5210.44 -1411.25 2529.23 13623.7 2346.51 5840.28 -2560.08 9612.92 19494.2 7766.27 72.3792 2503.05 37.6435 5049.55 13525.6 1873.67 25366.8 -3648.8 6805.77 -2891.7 -2048.68 4199.45 7154.67 -524.728 -1288.52 17322 720.501 916.018 8476.93
internal_weight=0 1705 6295 1421 433 1272 761 4874 444 227 380 1426 746 892 470 176 626 138 3448 345 2555 1891 404 206 1074 660 125 403 704 249
internal_count=8000 1705 6295 1421 433 1272 761 4874 444 227 380 1426 746 892 470 176 626 138 3448 345 2555 1891 404 206 1074 660 125 403 704 249
is_linear=0
shrinkage=0.05


Tree=35
num_leaves=31
num_cat=0
split_feature=1 3 0 0 3 2 2 1 2 3 1 3 2 3 2 0 0 0 0 1 2 2 3 3 2 0 3 3 1 3
split_gain=2.12361e+13 1.50365e+13 1.03692e+13 8.54848e+12 8.31735e+12 7.57291e+12 6.481e+12 4.43677e+12 4.24329e+12 4.01634e+12 3.03714e+12 2.93375e+12 2.93233e+12 2.65565e+12 2.62463e+12 2.42654e+12 2.41031e+12 2.24099e+12 2.05708e+12 1.92785e+12 1.75603e+12 1.7322e+12 1.70623e+12 1.55751e+12 1.51818e+12 1.40594e+12 1.36172e+12 1.30386e+12 1.19976e+12 1.15562e+12
threshold=7.826033160024231 0.48016759017324911 738.28625708219045 466.50529402715489 0.57814411078345052 467.25237101849456 392.33277884660254 4.9252370862318049 287.87302024732963 0.42111931189683421 4.1393272446844334 0.84266240723117669 411.97142631287392 0.14467296722873782 189.06683392309063 923.36740680827359 310.51077942091285 897.07127351871497 729.65802928782966 1.8400933292421187 177.75129895942919 487.62396320141528 0.089345004172403819 0.11984593712053461 529.93209760082016 548.27929893044052 0.15989072347404043 0.90949770176625833 1.1008119707418089 0.81686238988450477
decision_type=2 2 2 2 2 2 2 2 2 2 2 2 2 2 2 2 2 2 2 2 2 2 2 2 2 2 2 2 2 2
left_child=2 3 8 24 6 14 19 28 -1 10 -10 12 25 -9 -5 22 -12 23 -14 -4 -21 -18 -7 -16 -2 -3 -22 -6 -8 -11
right_child=1 11 4 5 27 15 7 13 9 29 16 -13 18 -15 17 -17 21 -19 -20 20 26 -23 -24 -25 -26 -27 -28 -29 -30 -31
